{"nets":[{"weightLayers":[{"nodes":[{"weights":[-0.5235811471939087,1.191914677619934,-1.7980424165725709,-2.4437355995178224,-0.5419510006904602,0.6805121302604675,-0.9596664905548096,0.06623822450637818,-2.604671001434326,-1.1022703647613526,-1.0271135568618775,0.37976598739624026]},{"weights":[0.9010800123214722,0.1458556056022644,1.3305479288101197,-1.326130747795105,0.48031601309776308,-0.6173332333564758,-0.05973316356539726,1.4680192470550538,-1.0526678562164307,1.122842788696289,-0.3674955666065216,1.545089840888977]},{"weights":[2.0302743911743166,0.08803437650203705,-0.8800668716430664,-0.14350691437721253,-0.1756744384765625,0.9251079559326172,0.8820202350616455,0.10956893861293793,-1.4126136302947999,0.45930662751197817,-0.5440353155136108,-1.5099310874938965]},{"weights":[-0.8596177101135254,-2.656203269958496,0.7078949213027954,1.2311325073242188,0.4971470832824707,-0.9612164497375488,-0.39812079071998598,0.2814617455005646,1.8821779489517213,-1.5867127180099488,1.4237326383590699,3.230666160583496]},{"weights":[-0.35930249094963076,1.0785876512527466,-2.0693187713623049,-0.016572486609220506,-0.5364953875541687,0.670563817024231,2.073228359222412,-0.05971207097172737,2.146787643432617,1.517392873764038,-1.7611000537872315,0.7011489272117615]},{"weights":[-0.6363443732261658,0.17686645686626435,-1.7189056873321534,0.9136127829551697,0.3927777409553528,1.9035712480545045,-0.5278252959251404,0.12096807360649109,-0.4230872094631195,0.021049655973911287,0.6278027892112732,-2.2067887783050539]},{"weights":[1.824764370918274,1.039060354232788,-0.13628584146499635,1.6671905517578126,0.2207665592432022,1.0168700218200684,-0.8699977397918701,-0.2292153388261795,0.07957198470830918,3.213712453842163,-2.0334739685058595,-0.3392535448074341]},{"weights":[0.517011821269989,-1.0333441495895386,0.269319087266922,-2.0682313442230226,-2.6900877952575685,1.4715150594711304,-0.752838134765625,-0.5941866636276245,0.622832179069519,-1.2186510562896729,-0.3043134808540344,0.4188944697380066]}]},{"nodes":[{"weights":[0.02736680582165718,-0.03495699539780617,-1.4762494564056397,0.7715215086936951,-0.5022154450416565,-0.0658593624830246,-0.7261795401573181,-0.47071927785873415]},{"weights":[-1.234299898147583,0.3592679798603058,-0.10991306602954865,-1.389345645904541,1.8772385120391846,1.040616512298584,0.8944417238235474,-0.5269597172737122]},{"weights":[-0.10932168364524842,-0.20445679128170014,1.304897665977478,0.21866218745708466,-0.7208453416824341,0.7341412305831909,-0.6669825911521912,-0.49400031566619875]},{"weights":[-0.9958981871604919,-0.3047430217266083,0.3492903709411621,2.8174452781677248,1.5853431224822999,-1.251987099647522,0.34749531745910647,-0.6652525067329407]},{"weights":[1.1319067478179932,2.0217199325561525,0.8257471919059753,-0.04565133899450302,0.7910506725311279,0.12955452501773835,-0.8839231729507446,-0.8938930034637451]},{"weights":[1.3132355213165284,0.39266929030418398,1.2400881052017213,0.8345982432365418,-0.4647297263145447,1.1924142837524415,0.043382856994867328,-1.0697240829467774]},{"weights":[-0.07940475642681122,-0.18071682751178742,0.865768313407898,-0.6476433277130127,0.08538869023323059,2.899527072906494,-0.69951331615448,0.3934193253517151]},{"weights":[0.4147608280181885,-0.6489225029945374,0.6118189692497253,-1.5511410236358643,-2.0551023483276369,0.22802652418613435,0.9258794188499451,0.23140022158622743]}]},{"nodes":[{"weights":[0.1712309867143631,2.515101671218872,-0.6552190780639648,0.355785608291626,-1.80039381980896,1.0767751932144166,0.2503664493560791,-1.0604445934295655]},{"weights":[0.5629060864448547,-1.6813935041427613,0.021303735673427583,-1.3197667598724366,0.41773247718811037,0.6138340830802918,-0.5526458024978638,1.6526734828948975]},{"weights":[-0.9467719793319702,-1.590478539466858,0.7656068205833435,1.2926756143569947,0.4072161316871643,0.768182098865509,0.3002772331237793,-0.5604645609855652]},{"weights":[-0.27337002754211428,0.845177173614502,-0.5221140384674072,-1.0597811937332154,2.1673495769500734,2.229057550430298,-1.7954288721084595,-0.09519846737384796]},{"weights":[-1.600654125213623,0.2695298194885254,-1.1819677352905274,-0.004342943429946899,-0.8874558806419373,1.3804768323898316,-0.4931319057941437,0.10461194813251496]},{"weights":[-1.4230564832687379,-0.9282352924346924,-0.975516140460968,-0.835333526134491,-1.0410763025283814,0.4682195782661438,-0.7371848225593567,0.7957671880722046]},{"weights":[0.04554232954978943,0.9379286766052246,-1.5847817659378052,-1.0896974802017213,-0.13099591434001923,0.4824715256690979,-0.3762845993041992,-1.505194902420044]},{"weights":[1.0740067958831788,-0.2546909749507904,1.2761261463165284,1.2774299383163453,-0.2075595259666443,0.43903660774230959,-0.6955182552337647,-0.9816175699234009]}]},{"nodes":[{"weights":[-1.2922121286392213,0.12553027272224427,-1.3108494281768799,1.2826513051986695,0.054378774017095569,0.4156644940376282,-0.7544216513633728,-0.3797297179698944]},{"weights":[-0.6803157329559326,0.8388052582740784,0.13469284772872926,2.796066999435425,0.45434343814849856,0.3899683952331543,1.507167100906372,0.3901962339878082]},{"weights":[-0.9247681498527527,-0.6291127800941467,-0.8933330774307251,-0.8629484176635742,0.3601101040840149,-0.8030398488044739,0.2663048207759857,1.8442901372909547]},{"weights":[-0.2606488764286041,-0.44538259506225588,-0.15716978907585145,0.6596871614456177,-0.8367555737495422,-0.2366083562374115,0.4352915287017822,-0.4104958772659302]},{"weights":[0.6362813711166382,-0.09510535001754761,0.4538399577140808,1.6374773979187012,1.7683852910995484,0.5351201295852661,-0.385942667722702,0.8517769575119019]},{"weights":[0.9750228524208069,0.4010891616344452,-0.9339433908462524,0.4450799226760864,-1.301756739616394,1.3602466583251954,-0.732427716255188,-0.9015467166900635]},{"weights":[-0.9671816825866699,-0.15060652792453767,-0.5851597189903259,-1.4156967401504517,0.3957856297492981,-1.280305027961731,-0.07132125645875931,-0.3857323229312897]},{"weights":[-0.7309034466743469,0.3424893021583557,1.0595394372940064,0.19561763107776643,-1.0624096393585206,1.2866921424865723,0.7391051650047302,-0.1364223062992096]}]}],"biasLayers":[{"biases":[-1.1851636171340943,0.7620968818664551,-0.9095068573951721,-0.9285546541213989,-0.7345579266548157,0.07817219197750092,0.07452753186225891,-0.534060001373291]},{"biases":[-0.37280550599098208,-0.7952525615692139,-0.6490722894668579,-1.1623570919036866,-0.3291488587856293,0.2927052676677704,1.4589890241622925,0.2047453373670578]},{"biases":[-0.778333842754364,-1.010076642036438,-0.028158996254205705,-1.5171126127243043,-0.6163607239723206,0.959037721157074,-0.15200424194335938,-0.2408062070608139]},{"biases":[-0.0772710070014,0.18299375474452973,-1.5516921281814576,0.2535642087459564,-0.6761365532875061,-0.9750645160675049,-0.5745141506195068,0.48825857043266299]}],"outputBiases":[0.02858257293701172,-0.16934086382389069],"outputWeights":[{"weights":[-1.7095948457717896,0.030719544738531114,-0.1369793564081192,2.1500399112701418,-0.020247111096978189,1.114173173904419,-0.040456373244524,0.26084789633750918]},{"weights":[-0.5034791827201843,-1.7308435440063477,-0.33125555515289309,0.2502951920032501,0.7128441333770752,0.9909791946411133,-1.497509241104126,-0.9191871285438538]}]},{"weightLayers":[{"nodes":[{"weights":[-0.5535513758659363,1.1607862710952759,-1.7166633605957032,-2.424595355987549,-0.641712486743927,0.6561983823776245,-0.9188128113746643,0.13005319237709046,-2.636453151702881,-1.0053281784057618,-1.1368926763534547,0.44714099168777468]},{"weights":[0.9668761491775513,0.138645738363266,1.34188973903656,-1.3316222429275513,0.5161763429641724,-0.576549768447876,0.004204992204904556,1.4139865636825562,-0.9938387870788574,1.0717864036560059,-0.35034435987472536,1.6966789960861207]},{"weights":[2.0721261501312258,0.06263577938079834,-0.7961127161979675,-0.26900193095207217,-0.21520960330963136,0.8615279793739319,0.8207367658615112,0.20403122901916505,-1.4473768472671509,0.43985214829444888,-0.5639311075210571,-1.5160648822784424]},{"weights":[-0.8100501298904419,-2.666074514389038,0.597744882106781,1.2516528367996216,0.5115365982055664,-0.915067732334137,-0.41510072350502016,0.1732182651758194,1.9487384557724,-1.5765419006347657,1.5637999773025513,3.1646969318389894]},{"weights":[-0.5117319226264954,1.072202444076538,-2.0070900917053224,-0.08790676295757294,-0.6617003679275513,0.6442512273788452,2.0853660106658937,-0.08178824931383133,2.2815849781036379,1.425007939338684,-1.8432860374450684,0.8075608611106873]},{"weights":[-0.6313938498497009,0.11632947623729706,-1.7882440090179444,0.9125062227249146,0.4263039231300354,1.8464549779891968,-0.4585617482662201,0.15607036650180818,-0.358291894197464,0.022776160389184953,0.6185169816017151,-2.285189390182495]},{"weights":[1.7921801805496216,1.0310672521591187,-0.11258384585380554,1.7161718606948853,0.16745319962501527,1.121058464050293,-0.8982893824577332,-0.20558856427669526,0.007068876177072525,3.079963445663452,-2.115499258041382,-0.36548495292663576]},{"weights":[0.5881373882293701,-0.9588338732719421,0.3373069167137146,-2.109593391418457,-2.6722946166992189,1.5127930641174317,-0.7876443862915039,-0.7033199071884155,0.6150493025779724,-1.3033219575881959,-0.42876434326171877,0.3836941719055176]}]},{"nodes":[{"weights":[0.036940909922122958,-0.02145230956375599,-1.4707475900650025,0.852763295173645,-0.5584449172019959,0.08028122782707215,-0.7400441765785217,-0.4613944888114929]},{"weights":[-1.2743932008743287,0.44568347930908205,-0.1432933658361435,-1.270542860031128,1.7751418352127076,0.9524714946746826,0.8994383811950684,-0.4444311261177063]},{"weights":[-0.06376846134662628,-0.2997337877750397,1.2710233926773072,0.16614346206188203,-0.6908481121063232,0.6576894521713257,-0.6829299926757813,-0.49257826805114748]},{"weights":[-1.0894954204559327,-0.33961257338523867,0.32979756593704226,2.8031680583953859,1.5386927127838135,-1.1611953973770142,0.37886670231819155,-0.5112554430961609]},{"weights":[1.0857160091400147,1.9326692819595338,0.6835653185844421,0.011727789416909218,0.7576205134391785,0.024530787020921708,-0.8936654329299927,-0.9291977286338806]},{"weights":[1.2334010601043702,0.42891910672187807,1.3043324947357178,0.8473196029663086,-0.47352898120880129,1.2593929767608643,0.0022117942571640016,-1.1268287897109986]},{"weights":[-0.03250552713871002,-0.19905811548233033,0.8863959908485413,-0.756737232208252,0.12188631296157837,2.817243814468384,-0.5401510000228882,0.5192993879318237]},{"weights":[0.4829333424568176,-0.7357890009880066,0.6850072741508484,-1.566848635673523,-1.9582425355911255,0.12630362808704377,0.8289451599121094,0.11907206475734711]}]},{"nodes":[{"weights":[0.24206095933914185,2.584343433380127,-0.6037304401397705,0.285820871591568,-1.876632571220398,1.1242393255233765,0.3011435568332672,-1.051923155784607]},{"weights":[0.683183491230011,-1.713963508605957,0.10741828382015228,-1.210585117340088,0.40096914768218996,0.5746046304702759,-0.45812663435935976,1.5691548585891724]},{"weights":[-0.9476280212402344,-1.6008031368255616,0.7701319456100464,1.3805577754974366,0.44693252444267275,0.7789244055747986,0.3728599548339844,-0.5626779198646545]},{"weights":[-0.2294769436120987,0.8617794513702393,-0.5545747876167297,-1.0098583698272706,2.192140817642212,2.1211299896240236,-1.8753348588943482,-0.08136142790317536]},{"weights":[-1.6148953437805176,0.3071708083152771,-1.163657546043396,0.02579277753829956,-0.7932061553001404,1.3658404350280762,-0.4448123872280121,0.23117870092391969]},{"weights":[-1.4242498874664307,-0.8191860914230347,-0.9363078474998474,-0.7767526507377625,-0.9614477753639221,0.5759214162826538,-0.7221058011054993,0.7461861371994019]},{"weights":[0.07058441638946533,1.0015074014663697,-1.5569945573806763,-0.9449741840362549,-0.1489592045545578,0.4447803199291229,-0.4140487313270569,-1.6115809679031373]},{"weights":[1.02766752243042,-0.3533463776111603,1.2678418159484864,1.1383017301559449,-0.21172891557216645,0.413857102394104,-0.6517201662063599,-1.0720382928848267]}]},{"nodes":[{"weights":[-1.2189191579818726,0.1462240219116211,-1.2120752334594727,1.133039116859436,0.10882867872714997,0.4973503053188324,-0.8133958578109741,-0.27254050970077517]},{"weights":[-0.6259133219718933,0.8199397921562195,0.01918211206793785,2.750812530517578,0.5535615086555481,0.41678890585899355,1.5346163511276246,0.40582820773124697]},{"weights":[-0.8865691423416138,-0.5624518394470215,-0.8518267869949341,-0.9264686703681946,0.31100863218307497,-0.7439571022987366,0.28013312816619875,1.8811993598937989]},{"weights":[-0.22925451397895814,-0.34787845611572268,-0.15384620428085328,0.8085672855377197,-0.7775377631187439,-0.32525256276130679,0.4337184429168701,-0.23835794627666474]},{"weights":[0.7126495838165283,-0.09650181233882904,0.28641477227211,1.6120331287384034,1.7456825971603394,0.5928706526756287,-0.32855844497680666,0.8897157311439514]},{"weights":[0.9277190566062927,0.44157886505126955,-0.9181972146034241,0.4956848621368408,-1.266305923461914,1.3717795610427857,-0.7589119076728821,-0.8823854923248291]},{"weights":[-1.0504260063171387,-0.18518580496311189,-0.587285041809082,-1.4025200605392457,0.3643427789211273,-1.21389639377594,-0.11773915588855744,-0.4452706277370453]},{"weights":[-0.8213579654693604,0.279814213514328,1.0545282363891602,0.33166182041168215,-1.0884368419647217,1.2158527374267579,0.7220319509506226,-0.11079098284244538]}]}],"biasLayers":[{"biases":[-1.2062464952468873,0.7246503829956055,-0.9219390153884888,-0.9436631798744202,-0.752485990524292,0.1950683891773224,0.03229256346821785,-0.5792306661605835]},{"biases":[-0.39410990476608279,-0.7386641502380371,-0.6381503939628601,-1.1154286861419678,-0.3537347912788391,0.21692323684692384,1.4134713411331177,0.1501895785331726]},{"biases":[-0.7483026385307312,-1.032454013824463,0.0060134269297122959,-1.520973801612854,-0.5241644382476807,1.0294647216796876,-0.12758691608905793,-0.33745133876800539]},{"biases":[-0.09954838454723358,0.21210327744483949,-1.6029540300369263,0.31615060567855837,-0.6960523724555969,-0.9511860609054565,-0.5812631845474243,0.45274659991264346]}],"outputBiases":[-0.08089610189199448,-0.24380578100681306],"outputWeights":[{"weights":[-1.7600409984588624,0.12592193484306336,-0.15312722325325013,2.1291468143463136,-0.039737097918987277,1.1343357563018799,-0.0866318866610527,0.1822385936975479]},{"weights":[-0.49815595149993899,-1.856684923171997,-0.33772072196006777,0.19974857568740846,0.8645241260528565,0.8393419981002808,-1.4377946853637696,-1.0178042650222779]}]},{"weightLayers":[{"nodes":[{"weights":[-0.5095677971839905,1.1413356065750123,-1.7190343141555787,-2.450596809387207,-0.5551418662071228,0.667077898979187,-0.9569125771522522,0.08955298364162445,-2.601235866546631,-1.1308412551879883,-1.0311965942382813,0.3978216052055359]},{"weights":[0.9418208599090576,0.13691839575767518,1.3948088884353638,-1.3678420782089234,0.41287025809288027,-0.6141407489776611,-0.03598911687731743,1.4833710193634034,-1.0084376335144044,1.1716829538345338,-0.36611562967300417,1.5589540004730225]},{"weights":[1.9784965515136719,0.09377425163984299,-0.8341315388679504,-0.20990586280822755,-0.18367603421211244,0.9518972635269165,0.9113748073577881,0.12152600288391113,-1.4709988832473755,0.4010505676269531,-0.5758815407752991,-1.5320885181427003]},{"weights":[-0.8861813545227051,-2.6013636589050295,0.6936918497085571,1.2290295362472535,0.4990091919898987,-0.9590533375740051,-0.47060030698776247,0.24419823288917542,1.867669939994812,-1.5731778144836426,1.3977601528167725,3.2669548988342287]},{"weights":[-0.33876097202301028,1.0782504081726075,-2.0876471996307375,-0.034797292202711108,-0.511798620223999,0.7023414373397827,2.057034492492676,-0.07013389468193054,2.121382713317871,1.5256434679031373,-1.7833653688430787,0.7366212606430054]},{"weights":[-0.7104946374893189,0.2038397639989853,-1.7291195392608643,0.9089447855949402,0.38438308238983157,1.9376094341278077,-0.49621981382369997,0.13853347301483155,-0.3688855767250061,0.03564872965216637,0.6141316294670105,-2.176333427429199]},{"weights":[1.762122392654419,1.0469210147857667,-0.17222736775875092,1.713470220565796,0.2098846137523651,1.0214368104934693,-0.8316147327423096,-0.20619556307792664,0.11579018086194992,3.190699338912964,-2.0736680030822756,-0.34924793243408205]},{"weights":[0.4876374304294586,-1.0605854988098145,0.25480228662490847,-2.082439661026001,-2.66182541847229,1.4847731590270997,-0.8393698930740356,-0.6209223866462708,0.6388062238693237,-1.1956700086593629,-0.24267461895942689,0.37873390316963198]}]},{"nodes":[{"weights":[0.05151553824543953,-0.046270888298749927,-1.434725284576416,0.7731306552886963,-0.5594923496246338,0.013545073568820954,-0.7167391777038574,-0.44839727878570559]},{"weights":[-1.284690499305725,0.3779025375843048,-0.1745685338973999,-1.313291311264038,1.8311662673950196,1.0224354267120362,0.9253137707710266,-0.48935019969940188]},{"weights":[-0.09022751450538635,-0.24101556837558747,1.2489506006240845,0.16502369940280915,-0.755029559135437,0.7363144159317017,-0.6280995011329651,-0.4666985869407654]},{"weights":[-1.0461905002593995,-0.34295693039894106,0.2649793028831482,2.8260293006896974,1.5499303340911866,-1.2747341394424439,0.40781426429748537,-0.6001211404800415]},{"weights":[1.0996789932250977,2.052156686782837,0.7625889182090759,-0.01915760710835457,0.84959477186203,0.10830383002758026,-0.8056358695030212,-0.8357455730438232]},{"weights":[1.2562135457992554,0.4752042591571808,1.2461899518966675,0.8292836546897888,-0.435612291097641,1.229437232017517,0.05246630683541298,-0.9941781759262085]},{"weights":[-0.008291546255350113,-0.1255781054496765,0.7968186140060425,-0.6971380710601807,0.10508009791374207,2.8144278526306154,-0.6351397633552551,0.4295659363269806]},{"weights":[0.34516024589538576,-0.6937986016273499,0.6546204686164856,-1.5217902660369874,-2.015348196029663,0.16043540835380555,0.8948574662208557,0.2695085108280182]}]},{"nodes":[{"weights":[0.21221213042736054,2.5744357109069826,-0.639287531375885,0.2986011803150177,-1.775949239730835,1.09084951877594,0.2586991786956787,-1.0830285549163819]},{"weights":[0.5934876203536987,-1.6661611795425416,0.008538307622075081,-1.3161444664001465,0.35203829407691958,0.5878344178199768,-0.5979257822036743,1.5676261186599732]},{"weights":[-0.9705906510353088,-1.4960436820983887,0.7928845882415772,1.3470921516418458,0.47290369868278506,0.7845572829246521,0.32500866055488589,-0.6032591462135315]},{"weights":[-0.25818219780921938,0.8968352675437927,-0.47439882159233096,-1.102486491203308,2.175762176513672,2.2250008583068849,-1.8202029466629029,-0.15179213881492616]},{"weights":[-1.5980020761489869,0.21795429289340974,-1.246114730834961,0.03294558450579643,-0.8909533023834229,1.4187959432601929,-0.46118104457855227,0.11773999035358429]},{"weights":[-1.4583803415298463,-0.967173159122467,-1.039612054824829,-0.7715010046958923,-1.015332579612732,0.47747519612312319,-0.719657838344574,0.8531888127326965]},{"weights":[-0.027851302176713945,1.0065226554870606,-1.599804162979126,-1.0629907846450806,-0.06895375996828079,0.43360090255737307,-0.41584816575050356,-1.5329464673995972]},{"weights":[1.0516331195831299,-0.2701705992221832,1.2784560918807984,1.2347434759140015,-0.25150516629219057,0.3970867395401001,-0.6714274883270264,-0.9950916767120361]}]},{"nodes":[{"weights":[-1.2676209211349488,0.14269006252288819,-1.286753535270691,1.2857723236083985,0.05502524599432945,0.4653445780277252,-0.7440876960754395,-0.3789907395839691]},{"weights":[-0.6567066311836243,0.8784418106079102,0.10636477917432785,2.785003900527954,0.44838765263557436,0.40979185700416567,1.474165916442871,0.38511914014816286]},{"weights":[-0.9506048560142517,-0.6177778840065002,-0.9345934987068176,-0.8544872403144836,0.41519179940223696,-0.7559813857078552,0.26397085189819338,1.7677757740020753]},{"weights":[-0.26363393664360049,-0.48191410303115847,-0.18969698250293733,0.7350268363952637,-0.8028621077537537,-0.24462121725082398,0.47910717129707339,-0.3396991789340973]},{"weights":[0.6143324971199036,-0.15595784783363343,0.46586480736732485,1.5775654315948487,1.8326585292816163,0.5661275386810303,-0.408478319644928,0.8132761120796204]},{"weights":[0.9152625203132629,0.4677019715309143,-0.9797012209892273,0.43671101331710818,-1.344717264175415,1.353936791419983,-0.7012506723403931,-0.8665260076522827]},{"weights":[-0.9661118984222412,-0.20084545016288758,-0.6347402334213257,-1.4056931734085084,0.35670530796051028,-1.2524553537368775,-0.14071154594421388,-0.3307407796382904]},{"weights":[-0.7442156076431274,0.3968978524208069,1.0785280466079713,0.163318932056427,-1.1102746725082398,1.2556549310684205,0.8263900279998779,-0.1332392692565918]}]}],"biasLayers":[{"biases":[-1.1744012832641602,0.7675220370292664,-0.8179207444190979,-0.9282969832420349,-0.7734407782554627,0.08338077366352081,0.07840757817029953,-0.5259746313095093]},{"biases":[-0.38588497042655947,-0.812683641910553,-0.622424304485321,-1.1580384969711304,-0.34304165840148928,0.26802951097488406,1.4591727256774903,0.22875583171844483]},{"biases":[-0.8010002970695496,-1.0621267557144166,0.02525259554386139,-1.5515130758285523,-0.554094672203064,0.9670229554176331,-0.1930452138185501,-0.25160613656044009]},{"biases":[-0.023917097598314287,0.109975665807724,-1.5188872814178467,0.2909078299999237,-0.6916499137878418,-0.8977905511856079,-0.577350378036499,0.4794923961162567]}],"outputBiases":[0.044248729944229129,-0.10611777007579804],"outputWeights":[{"weights":[-1.7548903226852418,0.04278476908802986,-0.14022128283977509,2.111769676208496,-0.05331231653690338,1.1192048788070679,-0.11469337344169617,0.22750304639339448]},{"weights":[-0.4365445375442505,-1.7689220905303956,-0.2356889247894287,0.18095479905605317,0.7167550921440125,0.9208369851112366,-1.4017099142074586,-0.8789801597595215]}]},{"weightLayers":[{"nodes":[{"weights":[-0.5565968155860901,1.1917991638183594,-1.7220344543457032,-2.447322368621826,-0.5770310759544373,0.626794159412384,-1.0179301500320435,0.04252763092517853,-2.7096123695373537,-1.090927243232727,-1.0662908554077149,0.38970455527305605]},{"weights":[0.8646628856658936,0.21300038695335389,1.3841702938079835,-1.3045815229415894,0.3778037130832672,-0.5967249870300293,0.07648219168186188,1.4440670013427735,-0.9863683581352234,1.0828630924224854,-0.2815122604370117,1.6177650690078736]},{"weights":[2.058385133743286,0.07299649715423584,-0.9486395120620728,-0.22922979295253755,-0.1714191883802414,0.789136528968811,0.7696983218193054,0.11492624878883362,-1.4215973615646363,0.4639723300933838,-0.4751139283180237,-1.5959324836730958]},{"weights":[-0.8629589676856995,-2.663655996322632,0.7049993276596069,1.2317285537719727,0.4590305984020233,-0.8947984576225281,-0.4274514317512512,0.21140381693840028,1.8451008796691895,-1.5361253023147584,1.3890633583068848,3.306511878967285]},{"weights":[-0.34591859579086306,1.1527326107025147,-2.09047532081604,-0.038059037178754809,-0.5638615489006043,0.6638740301132202,2.0835180282592775,-0.02352719008922577,2.2288217544555666,1.4504401683807374,-1.8277013301849366,0.6816718578338623]},{"weights":[-0.5816559791564941,0.1975124031305313,-1.768834114074707,0.9537038803100586,0.4201143682003021,1.9501609802246094,-0.5899254679679871,0.11344209313392639,-0.3592994511127472,0.04335608705878258,0.6409624814987183,-2.221385955810547]},{"weights":[1.7808924913406373,1.0734169483184815,-0.03931776434183121,1.6980327367782593,0.21994206309318543,1.0499212741851807,-0.8996947407722473,-0.22215721011161805,0.12741707265377046,3.1362993717193605,-2.072528839111328,-0.2991175055503845]},{"weights":[0.5804802775382996,-1.038789987564087,0.26741454005241396,-2.113644599914551,-2.7129762172698976,1.4731342792510987,-0.8176195025444031,-0.6124928593635559,0.6338739991188049,-1.221112847328186,-0.2549453377723694,0.32139256596565249]}]},{"nodes":[{"weights":[0.04823145642876625,-0.14653748273849488,-1.4804822206497193,0.7782488465309143,-0.5736101865768433,0.01799573004245758,-0.7300252318382263,-0.3925517201423645]},{"weights":[-1.2277710437774659,0.43199607729911806,-0.12374645471572876,-1.321409821510315,1.9078694581985474,0.9696452021598816,0.9432777166366577,-0.5104456543922424]},{"weights":[-0.04466916248202324,-0.30575811862945559,1.4089282751083375,0.18711727857589723,-0.6863653659820557,0.7978145480155945,-0.6373969316482544,-0.3899766802787781]},{"weights":[-1.1244399547576905,-0.30054187774658205,0.28778722882270815,2.805999279022217,1.6049362421035767,-1.241771936416626,0.37163057923316958,-0.6018861532211304]},{"weights":[1.144430160522461,1.9790788888931275,0.7254178524017334,-0.048530083149671558,0.7238925099372864,0.08940207958221436,-0.7583150267601013,-0.7734601497650147]},{"weights":[1.2910692691802979,0.4717307984828949,1.2635414600372315,0.865803599357605,-0.4878247082233429,1.1464554071426392,0.06440353393554688,-1.0230917930603028]},{"weights":[-0.04512065649032593,-0.16112427413463593,0.8348564505577087,-0.7719445824623108,0.12957078218460084,2.931184768676758,-0.6796826720237732,0.47898173332214358]},{"weights":[0.48228806257247927,-0.6662042140960693,0.6515524983406067,-1.5578361749649048,-2.0096845626831056,0.19565317034721375,0.8948768973350525,0.252496600151062]}]},{"nodes":[{"weights":[0.24699130654335023,2.5430188179016115,-0.6699141263961792,0.3510657846927643,-1.82594895362854,1.133733868598938,0.2454906702041626,-1.0874863862991334]},{"weights":[0.5983737707138062,-1.652730941772461,0.12227015197277069,-1.282889723777771,0.378877192735672,0.5837475657463074,-0.48531249165534975,1.610166072845459]},{"weights":[-0.9157551527023315,-1.578324556350708,0.8224829435348511,1.2231454849243165,0.4740387797355652,0.8383642435073853,0.2917868196964264,-0.5495240688323975]},{"weights":[-0.2748296856880188,0.9528188705444336,-0.4441838264465332,-1.1524102687835694,2.191983938217163,2.0840868949890138,-1.878950595855713,-0.14743216335773469]},{"weights":[-1.6638219356536866,0.2404283732175827,-1.2705085277557374,0.01809811219573021,-0.9029529094696045,1.366081714630127,-0.45263537764549258,0.15150634944438935]},{"weights":[-1.4528083801269532,-0.9045853018760681,-0.9686194062232971,-0.8012663125991821,-0.9664400219917297,0.5114135146141052,-0.73131263256073,0.79880690574646]},{"weights":[0.06582871079444885,0.9243550300598145,-1.550666093826294,-0.945955753326416,-0.18028007447719575,0.4553718864917755,-0.3047207295894623,-1.5319734811782838]},{"weights":[1.0622373819351197,-0.22489885985851289,1.2376914024353028,1.2543532848358155,-0.2503964304924011,0.4328668415546417,-0.6958997845649719,-0.9691330194473267]}]},{"nodes":[{"weights":[-1.3246111869812012,0.07824933528900147,-1.289211392402649,1.2859721183776856,0.0874565839767456,0.5379263758659363,-0.7212613224983215,-0.3642400801181793]},{"weights":[-0.6122556328773499,0.8408004641532898,0.05534644424915314,2.8222618103027345,0.4882325828075409,0.400892049074173,1.4809849262237549,0.4639492630958557]},{"weights":[-0.959621787071228,-0.6048024296760559,-0.9262101054191589,-0.8733574151992798,0.3353118896484375,-0.7620331048965454,0.2992475926876068,1.845194935798645]},{"weights":[-0.20562568306922913,-0.39468371868133547,-0.15429815649986268,0.7104946374893189,-0.8012309670448303,-0.29877182841300967,0.431923508644104,-0.3593473434448242]},{"weights":[0.6737300157546997,-0.05055997148156166,0.42097458243370058,1.6590601205825806,1.7745386362075806,0.572982907295227,-0.2657003104686737,0.9255125522613525]},{"weights":[1.0243500471115113,0.3923608064651489,-0.9168579578399658,0.42831850051879885,-1.330703854560852,1.3882421255111695,-0.6895338296890259,-1.0041840076446534]},{"weights":[-0.9750753045082092,-0.18664023280143739,-0.5385993719100952,-1.41583251953125,0.38092049956321719,-1.2422595024108887,-0.07723768800497055,-0.3688019812107086]},{"weights":[-0.8403589725494385,0.3751489222049713,1.0013359785079957,0.2541849911212921,-1.1432757377624512,1.3473690748214722,0.781894326210022,-0.09161604940891266]}]}],"biasLayers":[{"biases":[-1.1646513938903809,0.7456042170524597,-0.9177442789077759,-0.9317824244499207,-0.6971393823623657,0.09887184947729111,0.05021071806550026,-0.4685232937335968]},{"biases":[-0.38582509756088259,-0.7815320491790772,-0.6140236258506775,-1.1459687948226929,-0.3492926061153412,0.34252920746803286,1.5025012493133546,0.25945669412612917]},{"biases":[-0.8079236149787903,-1.0294568538665772,-0.0034265555441379549,-1.585434079170227,-0.6268409490585327,1.022428274154663,-0.18235135078430177,-0.32494449615478518]},{"biases":[-0.031672123819589618,0.17227590084075929,-1.5416579246520997,0.2539512515068054,-0.68902987241745,-0.9650288820266724,-0.6134341359138489,0.4650647044181824]}],"outputBiases":[-0.03531438112258911,-0.02610184997320175],"outputWeights":[{"weights":[-1.7445820569992066,0.16778989136219026,-0.08165031671524048,2.2024970054626467,-0.05965569242835045,1.0746017694473267,-0.13611911237239839,0.25802552700042727]},{"weights":[-0.4873252213001251,-1.8073288202285767,-0.33216482400894167,0.09917668998241425,0.8433576822280884,0.9697427749633789,-1.4803752899169922,-0.908982515335083]}]},{"weightLayers":[{"nodes":[{"weights":[-0.5755173563957214,1.15923011302948,-1.7485889196395875,-2.4242420196533205,-0.5780999064445496,0.6228811740875244,-0.9528968930244446,0.15157586336135865,-2.5933775901794435,-1.128018856048584,-1.0186524391174317,0.43412989377975466]},{"weights":[0.9730185866355896,0.11069034039974213,1.4153690338134766,-1.3633133172988892,0.39867258071899416,-0.6385768055915833,-0.05128432437777519,1.468203067779541,-0.958498477935791,1.166301965713501,-0.3781833350658417,1.5428191423416138]},{"weights":[2.020076036453247,0.14103616774082185,-0.8480960130691528,-0.16675707697868348,-0.16919194161891938,0.9286292791366577,0.8710399866104126,0.14291983842849732,-1.4724253416061402,0.4834134876728058,-0.5745058655738831,-1.5339142084121705]},{"weights":[-0.8650778532028198,-2.624818801879883,0.6805292367935181,1.2996755838394166,0.4459761381149292,-0.991818904876709,-0.3853401243686676,0.2399081438779831,1.8447908163070679,-1.5888999700546265,1.4452747106552125,3.268738031387329]},{"weights":[-0.36212947964668276,1.0816868543624879,-2.0720841884613039,-0.03514930605888367,-0.5196319818496704,0.6497337222099304,1.980211853981018,-0.01456458866596222,2.211469888687134,1.4481467008590699,-1.788960576057434,0.6637492775917053]},{"weights":[-0.673438310623169,0.21611054241657258,-1.6990445852279664,0.9053729176521301,0.415061891078949,1.9170883893966675,-0.5124136805534363,0.1494223028421402,-0.42692825198173525,0.016240881755948068,0.6219882369041443,-2.173462390899658]},{"weights":[1.7394658327102662,1.1098015308380128,-0.12812186777591706,1.6817790269851685,0.2342146933078766,1.076104998588562,-0.878672182559967,-0.225432887673378,0.07438696920871735,3.141857385635376,-2.0644142627716066,-0.3611656427383423]},{"weights":[0.4790557026863098,-1.1188257932662964,0.33318230509757998,-2.0469794273376467,-2.6563920974731447,1.5554527044296265,-0.749180018901825,-0.6305927038192749,0.6683053374290466,-1.1733455657958985,-0.2888093590736389,0.33963972330093386]}]},{"nodes":[{"weights":[0.09091262519359589,-0.10529489815235138,-1.4489021301269532,0.7107707858085632,-0.5009018778800964,0.00544433668255806,-0.7619456052780151,-0.40465834736824038]},{"weights":[-1.2878490686416627,0.34201616048812868,-0.19843566417694093,-1.3121427297592164,1.9153116941452027,1.0289475917816163,0.9108685851097107,-0.47752106189727785]},{"weights":[-0.1336621642112732,-0.21420735120773316,1.327280879020691,0.15510690212249757,-0.7458620071411133,0.6797575354576111,-0.6697804927825928,-0.4897124469280243]},{"weights":[-1.0327814817428589,-0.34043624997138979,0.30239349603652956,2.7866604328155519,1.6104460954666138,-1.2381147146224976,0.42410269379615786,-0.5951215624809265]},{"weights":[1.143282413482666,2.0366692543029787,0.7981449365615845,-0.06437418609857559,0.8247266411781311,0.10106734931468964,-0.8207467794418335,-0.9061909914016724]},{"weights":[1.3192297220230103,0.4394492208957672,1.2552939653396607,0.8203387260437012,-0.41436663269996645,1.265208125114441,0.0669010579586029,-1.0302114486694337]},{"weights":[-0.015058569610118866,-0.11426696181297302,0.8396071195602417,-0.6674838662147522,0.10829730331897736,2.8595640659332277,-0.655365526676178,0.430620938539505]},{"weights":[0.4110962450504303,-0.6550923585891724,0.6779009699821472,-1.466913104057312,-2.0324923992156984,0.23549026250839234,0.9189913272857666,0.21507471799850465]}]},{"nodes":[{"weights":[0.234113410115242,2.496030807495117,-0.624207615852356,0.3678427040576935,-1.7627345323562623,1.0978223085403443,0.2784219980239868,-1.074893832206726]},{"weights":[0.6004684567451477,-1.7102702856063843,0.05421212315559387,-1.3383784294128419,0.4178520441055298,0.5445393323898315,-0.5990094542503357,1.5812650918960572]},{"weights":[-0.9220049977302551,-1.5294524431228638,0.7299043536186218,1.2799794673919678,0.39604729413986208,0.8313971161842346,0.29517266154289248,-0.5620227456092835]},{"weights":[-0.26483967900276186,0.8447747826576233,-0.4840048551559448,-1.03839910030365,2.1268088817596437,2.184471368789673,-1.8690427541732789,-0.17700691521167756]},{"weights":[-1.5960769653320313,0.23106501996517182,-1.2473454475402833,-0.005240455269813538,-0.9607442021369934,1.4525277614593506,-0.4650701880455017,0.10123997926712036]},{"weights":[-1.3953616619110108,-0.9318655729293823,-0.9905776977539063,-0.8472932577133179,-1.0598806142807007,0.5328965187072754,-0.7802109122276306,0.7860589027404785]},{"weights":[-0.03462950512766838,0.9868226647377014,-1.5915923118591309,-1.102474570274353,-0.0620819628238678,0.42408859729766848,-0.40068134665489199,-1.5421228408813477]},{"weights":[1.043031096458435,-0.30499181151390078,1.241894245147705,1.2444415092468262,-0.29928213357925417,0.3819795250892639,-0.6992527842521668,-0.9775210022926331]}]},{"nodes":[{"weights":[-1.2323943376541138,0.14863190054893495,-1.3129569292068482,1.3028513193130494,-0.0084306001663208,0.4317973852157593,-0.829669713973999,-0.29916244745254519]},{"weights":[-0.7226684093475342,0.8822605609893799,0.09063015133142472,2.757265329360962,0.45900633931159975,0.4124448895454407,1.4363200664520264,0.3527408242225647]},{"weights":[-0.911136269569397,-0.6197118759155273,-0.9093207120895386,-0.8244190812110901,0.3415382504463196,-0.7692166566848755,0.299037367105484,1.8237576484680176]},{"weights":[-0.19353719055652619,-0.4995090067386627,-0.21841633319854737,0.6723526120185852,-0.8571298718452454,-0.24610808491706849,0.46330544352531435,-0.33437761664390566]},{"weights":[0.6276184320449829,-0.07534655928611756,0.3929946720600128,1.6120327711105347,1.8181560039520264,0.6055386066436768,-0.40800127387046816,0.9011754989624023]},{"weights":[0.9821816086769104,0.4693872332572937,-0.9739524126052856,0.4179374575614929,-1.335295557975769,1.3967742919921876,-0.6722316145896912,-0.8628256916999817]},{"weights":[-0.9780449867248535,-0.21509894728660584,-0.6196584701538086,-1.480342149734497,0.35098227858543398,-1.3240809440612794,-0.05912786349654198,-0.33346354961395266]},{"weights":[-0.8143125772476196,0.35641464591026308,1.1132701635360718,0.19653071463108064,-1.1210711002349854,1.2530795335769654,0.8221650123596191,-0.08806990087032318]}]}],"biasLayers":[{"biases":[-1.1604348421096802,0.7581994533538818,-0.888837993144989,-0.8432430028915405,-0.7770132422447205,0.08268560469150543,0.09396468847990036,-0.5256235599517822]},{"biases":[-0.3659624755382538,-0.8008316159248352,-0.5815216898918152,-1.155151128768921,-0.38012176752090456,0.3094095289707184,1.4318512678146363,0.19489686191082]},{"biases":[-0.7599838376045227,-1.1024339199066163,-0.04196527972817421,-1.547191858291626,-0.5805602073669434,0.9555000066757202,-0.10116365551948548,-0.2203567624092102]},{"biases":[-0.0620911568403244,0.08945634961128235,-1.5037649869918824,0.20101949572563172,-0.655722975730896,-0.964860737323761,-0.6274463534355164,0.5145665407180786]}],"outputBiases":[0.024160005152225496,-0.16564549505710603],"outputWeights":[{"weights":[-1.6942615509033204,0.05989497900009155,-0.04805595055222511,2.108093023300171,-0.06738870590925217,1.0602223873138428,-0.07036149501800537,0.26824671030044558]},{"weights":[-0.44415023922920229,-1.7639962434768677,-0.2469443827867508,0.22017203271389008,0.7574177980422974,0.9183081984519959,-1.453574538230896,-0.8947317004203796]}]},{"weightLayers":[{"nodes":[{"weights":[-0.5463225841522217,1.142190933227539,-1.757724404335022,-2.361499309539795,-0.6651291251182556,0.6665006279945374,-0.9764643311500549,0.09602794051170349,-2.6552114486694338,-1.0295257568359376,-1.1196471452713013,0.4103783667087555]},{"weights":[0.9457712173461914,0.14863282442092896,1.4096848964691163,-1.2907907962799073,0.44717487692832949,-0.5817301273345947,-0.003375798463821411,1.4619193077087403,-1.031424641609192,1.0408159494400025,-0.34047213196754458,1.6571969985961915]},{"weights":[2.0649847984313967,0.04498698189854622,-0.877210795879364,-0.30466583371162417,-0.19922935962677003,0.9212124943733215,0.7633810639381409,0.23053637146949769,-1.4083231687545777,0.45345962047576907,-0.5175843834877014,-1.4855877161026]},{"weights":[-0.813430666923523,-2.697702169418335,0.5702059268951416,1.299946665763855,0.4528936743736267,-0.9575449228286743,-0.4755183458328247,0.1353069245815277,1.9116071462631226,-1.5679210424423218,1.5759049654006959,3.238436460494995]},{"weights":[-0.4629819393157959,1.029188871383667,-2.0544042587280275,-0.09888485074043274,-0.6164855360984802,0.7061715126037598,2.13016414642334,-0.11300139129161835,2.3564932346343996,1.407945990562439,-1.8604780435562134,0.8044835925102234]},{"weights":[-0.6666235327720642,0.068775475025177,-1.7130662202835084,0.8558815121650696,0.4702894985675812,1.9027748107910157,-0.41123926639556887,0.17863859236240388,-0.4021267294883728,0.06054115667939186,0.6619107127189636,-2.3181777000427248]},{"weights":[1.801498532295227,1.0203955173492432,-0.04373663663864136,1.7269783020019532,0.1581418216228485,1.1858339309692383,-0.9355084896087647,-0.18776339292526246,0.05964837968349457,3.1077897548675539,-2.026752471923828,-0.36983853578567507]},{"weights":[0.5862378478050232,-1.0288752317428589,0.36752277612686159,-2.077993392944336,-2.691079616546631,1.4877612590789796,-0.7698401808738709,-0.6830845475196838,0.635809600353241,-1.3410404920578004,-0.34193769097328188,0.3623615503311157]}]},{"nodes":[{"weights":[0.024651944637298585,-0.045494433492422107,-1.4741406440734864,0.8520136475563049,-0.5597100257873535,0.08075464516878128,-0.6935263276100159,-0.4261564612388611]},{"weights":[-1.2680449485778809,0.46723732352256777,-0.15017437934875489,-1.3297187089920045,1.8658862113952637,0.9797305464744568,0.8725937008857727,-0.474999338388443]},{"weights":[-0.08091434836387634,-0.2531994581222534,1.2331207990646363,0.1717846691608429,-0.6735203862190247,0.7031640410423279,-0.7100970149040222,-0.5127444267272949]},{"weights":[-1.0542551279067994,-0.33393651247024538,0.29174476861953738,2.792602777481079,1.4962844848632813,-1.1919289827346802,0.32900726795196535,-0.522325336933136]},{"weights":[1.1457009315490723,1.9112327098846436,0.7553961873054504,-0.02884712629020214,0.7925891876220703,0.09161975234746933,-0.9325888156890869,-0.9957247376441956]},{"weights":[1.1664836406707764,0.4389527142047882,1.248737096786499,0.8305243253707886,-0.4822039306163788,1.3015251159667969,0.013064000755548478,-1.073399305343628]},{"weights":[0.009039271622896195,-0.2461390495300293,0.8669808506965637,-0.7577897310256958,0.13936692476272584,2.8241207599639894,-0.5691669583320618,0.5563274621963501]},{"weights":[0.41224566102027895,-0.6521884799003601,0.749751627445221,-1.5591076612472535,-1.8920130729675294,0.13520030677318574,0.8645831346511841,0.17928560078144074]}]},{"nodes":[{"weights":[0.32370859384536745,2.5104920864105226,-0.6637087464332581,0.2793039083480835,-1.8774133920669556,1.0907400846481324,0.30208620429039,-1.022161841392517]},{"weights":[0.6070921421051025,-1.6651850938796998,0.14271949231624604,-1.1834765672683716,0.38951969146728518,0.5596393942832947,-0.4635274112224579,1.578368067741394]},{"weights":[-0.9128146171569824,-1.6438376903533936,0.7483363747596741,1.392516016960144,0.43557965755462649,0.8682734966278076,0.3992086350917816,-0.5519053936004639]},{"weights":[-0.23351764678955079,0.8604552149772644,-0.5267601013183594,-1.052656888961792,2.2087738513946535,2.124295473098755,-1.8468066453933716,-0.11021578311920166]},{"weights":[-1.5814274549484254,0.3369034230709076,-1.2113596200942994,-0.01191519945859909,-0.8174535036087036,1.4534075260162354,-0.4718796908855438,0.18360643088817597]},{"weights":[-1.4392009973526,-0.9016835689544678,-0.9218810200691223,-0.8240318298339844,-0.9199314117431641,0.5518214106559753,-0.7577066421508789,0.8152308464050293]},{"weights":[0.08849292993545532,0.9577205181121826,-1.6018975973129273,-0.9105032682418823,-0.16731439530849458,0.439933180809021,-0.4023781716823578,-1.607235074043274]},{"weights":[1.0341465473175049,-0.28037697076797488,1.2371553182601929,1.1285938024520875,-0.23657725751399995,0.3809277415275574,-0.7038724422454834,-1.1108661890029908]}]},{"nodes":[{"weights":[-1.2294682264328004,0.1776047646999359,-1.250259518623352,1.1752145290374756,0.027409527450799943,0.5120111107826233,-0.8768085241317749,-0.25273916125297549]},{"weights":[-0.6242519021034241,0.811862587928772,0.035349395126104358,2.751697063446045,0.5253199934959412,0.42728036642074587,1.5074459314346314,0.4980164170265198]},{"weights":[-0.9468864798545837,-0.6004144549369812,-0.8177528977394104,-0.9535586833953857,0.3904035687446594,-0.7782994508743286,0.2065517157316208,1.9234588146209717]},{"weights":[-0.24429678916931153,-0.4228668808937073,-0.22986887395381928,0.7491390705108643,-0.8287740349769592,-0.26217329502105715,0.4783441424369812,-0.2935837209224701]},{"weights":[0.7519057393074036,-0.17664577066898347,0.30188876390457156,1.608818769454956,1.7310442924499512,0.571255624294281,-0.36061766743659975,0.8439928293228149]},{"weights":[0.9169312715530396,0.4470047056674957,-0.9885572791099548,0.4286670684814453,-1.2038509845733643,1.2992477416992188,-0.669427216053009,-0.9281492829322815]},{"weights":[-1.045285940170288,-0.1379327028989792,-0.6361103057861328,-1.3765084743499756,0.30209943652153017,-1.2054904699325562,-0.13849037885665894,-0.4989849328994751]},{"weights":[-0.8523834347724915,0.27456408739089968,1.1154462099075318,0.37545740604400637,-1.0884534120559693,1.253672480583191,0.7013002038002014,-0.12429018318653107]}]}],"biasLayers":[{"biases":[-1.1933122873306275,0.7842910885810852,-0.9302175045013428,-1.0396474599838257,-0.7032985091209412,0.24719561636447907,0.10527557134628296,-0.5266409516334534]},{"biases":[-0.41367220878601076,-0.6965919137001038,-0.6110361814498901,-1.1440964937210084,-0.3701924681663513,0.26658037304878237,1.368852138519287,0.19184859097003938]},{"biases":[-0.7589688897132874,-1.0916270017623902,0.08749231696128845,-1.5314146280288697,-0.5049030780792236,1.0503785610198975,-0.20960178971290589,-0.3398321866989136]},{"biases":[-0.025336500257253648,0.2952888607978821,-1.5492753982543946,0.32699054479599,-0.7176157236099243,-0.8758281469345093,-0.5258892774581909,0.4251117706298828]}],"outputBiases":[-0.11686518788337708,-0.2633150815963745],"outputWeights":[{"weights":[-1.7473946809768677,0.07408992201089859,-0.15950173139572144,2.112621545791626,-0.04990503191947937,1.0891313552856446,-0.09773468226194382,0.2439463883638382]},{"weights":[-0.47839879989624026,-1.8538658618927003,-0.3533463478088379,0.1898740977048874,0.8307443857192993,0.8013315200805664,-1.4349926710128785,-0.9804531335830689]}]},{"weightLayers":[{"nodes":[{"weights":[-0.4811125695705414,1.155879259109497,-1.7340675592422486,-2.4428975582122804,-0.5793552994728088,0.6903367042541504,-1.0254420042037964,0.1278221309185028,-2.596204996109009,-1.1356481313705445,-1.0880693197250367,0.3793094754219055]},{"weights":[0.9196289777755737,0.18936581909656526,1.4066588878631592,-1.370829463005066,0.4447711706161499,-0.607758104801178,0.006864527240395546,1.4821562767028809,-1.016674518585205,1.2071791887283326,-0.3570105731487274,1.5544030666351319]},{"weights":[2.0688271522521974,0.12097375094890595,-0.8484846949577332,-0.12923790514469148,-0.17230786383152009,0.940496027469635,0.9050769805908203,0.17266778647899629,-1.4099693298339844,0.4575129747390747,-0.49919000267982485,-1.5107289552688599]},{"weights":[-0.8992528915405273,-2.666344404220581,0.6973872184753418,1.2767810821533204,0.49623462557792666,-0.9781405329704285,-0.45043444633483889,0.22468668222427369,1.8697381019592286,-1.5683127641677857,1.3973963260650635,3.249188184738159]},{"weights":[-0.3999808430671692,1.0601752996444703,-2.068190813064575,-0.06309394538402558,-0.5431314706802368,0.6798326373100281,2.063807249069214,-0.032904744148254397,2.1351354122161867,1.468117117881775,-1.7911313772201539,0.7366455793380737]},{"weights":[-0.7236353158950806,0.183009535074234,-1.769690752029419,0.850093424320221,0.4335179626941681,1.8734238147735596,-0.510774552822113,0.09621860086917877,-0.4393414556980133,0.01836397498846054,0.6679279804229736,-2.2108449935913088]},{"weights":[1.766438364982605,1.0839351415634156,-0.07663419842720032,1.638020396232605,0.166826993227005,1.0325993299484254,-0.8553379774093628,-0.16079488396644593,0.13460753858089448,3.1326873302459719,-2.064387083053589,-0.3323444724082947]},{"weights":[0.5742337703704834,-1.0532435178756714,0.34308677911758425,-2.0690371990203859,-2.617363214492798,1.5646504163742066,-0.8175057768821716,-0.5765772461891174,0.6926791071891785,-1.2503666877746583,-0.28352677822113039,0.4021843373775482]}]},{"nodes":[{"weights":[0.025465644896030427,-0.033299531787633899,-1.483406662940979,0.7261093854904175,-0.4767547845840454,-0.04043256491422653,-0.7449647784233093,-0.45543697476387026]},{"weights":[-1.2938714027404786,0.33718815445899966,-0.17469945549964906,-1.3121896982192994,1.8470451831817628,0.9763336777687073,0.9333068132400513,-0.47823119163513186]},{"weights":[-0.08033646643161774,-0.2164100706577301,1.2824182510375977,0.1799590140581131,-0.8053416609764099,0.7122045755386353,-0.6427328586578369,-0.421187162399292]},{"weights":[-0.9735126495361328,-0.35370251536369326,0.26875725388526919,2.798327922821045,1.5624685287475587,-1.2130011320114136,0.37141138315200808,-0.6273034811019898]},{"weights":[1.1301182508468629,2.034514904022217,0.8319399952888489,-0.0977482944726944,0.8486834168434143,0.06148480996489525,-0.8598463535308838,-0.8205063343048096]},{"weights":[1.3135921955108643,0.4110766649246216,1.275667667388916,0.8063668608665466,-0.4465147852897644,1.225643515586853,0.014876548200845719,-1.0138977766036988]},{"weights":[-0.06548647582530976,-0.16622906923294068,0.7808334827423096,-0.6728160977363586,0.10498663783073425,2.8788414001464845,-0.7082964181900024,0.42793330550193789]},{"weights":[0.3836396038532257,-0.7076131701469421,0.620910108089447,-1.5011159181594849,-2.020983934402466,0.242625430226326,0.9190269112586975,0.20729687809944154]}]},{"nodes":[{"weights":[0.2514645755290985,2.5842478275299074,-0.7193341255187988,0.37228065729141238,-1.7483100891113282,1.033548355102539,0.27192723751068118,-1.085794448852539]},{"weights":[0.6037971377372742,-1.6953065395355225,0.01958232931792736,-1.3215110301971436,0.41766393184661868,0.6133297681808472,-0.5774567723274231,1.6398953199386597]},{"weights":[-0.9750204682350159,-1.5067169666290284,0.8095991015434265,1.3154860734939576,0.39625808596611025,0.8571145534515381,0.31485769152641299,-0.5279167890548706]},{"weights":[-0.24123524129390717,0.8503506183624268,-0.5021445155143738,-1.0898739099502564,2.1685712337493898,2.21305513381958,-1.8562803268432618,-0.11506703495979309]},{"weights":[-1.6164226531982422,0.270595908164978,-1.182311773300171,0.07437089085578919,-0.9207762479782105,1.4490866661071778,-0.4405847489833832,0.12663477659225465]},{"weights":[-1.4755975008010865,-0.9391700625419617,-0.9704828858375549,-0.8384566903114319,-0.9780528545379639,0.45723438262939455,-0.7560121417045593,0.8476127982139587]},{"weights":[-0.01443900540471077,0.9444037675857544,-1.5149177312850953,-1.0566210746765137,-0.10826768726110459,0.3922731578350067,-0.3527110517024994,-1.5290205478668213]},{"weights":[1.0643662214279175,-0.23653434216976167,1.301626443862915,1.2717533111572266,-0.2497645616531372,0.4683862030506134,-0.6822867393493652,-0.97661292552948]}]},{"nodes":[{"weights":[-1.2066943645477296,0.18337833881378175,-1.3023663759231568,1.2654467821121216,-0.006813764572143555,0.42105811834335329,-0.7969347834587097,-0.3728227913379669]},{"weights":[-0.7123672366142273,0.9053026437759399,0.09424852579832077,2.8085100650787355,0.49238455295562746,0.3574315905570984,1.5086307525634766,0.3670588433742523]},{"weights":[-0.9609323740005493,-0.66876620054245,-0.9329436421394348,-0.814834713935852,0.4177170693874359,-0.8425157070159912,0.2875230014324188,1.851652979850769]},{"weights":[-0.2341638207435608,-0.4406793713569641,-0.19790196418762208,0.687416136264801,-0.8205692768096924,-0.27311334013938906,0.4012998938560486,-0.3338887393474579]},{"weights":[0.6156611442565918,-0.1441226601600647,0.38323256373405459,1.6367249488830567,1.8223543167114258,0.5694794058799744,-0.32673922181129458,0.8761211633682251]},{"weights":[0.9388643503189087,0.4050053656101227,-0.9210282564163208,0.4276352822780609,-1.3372262716293336,1.389757752418518,-0.6772459745407105,-0.8313986659049988]},{"weights":[-0.967778205871582,-0.16790935397148133,-0.5976612567901611,-1.4642295837402344,0.38538819551467898,-1.25455641746521,-0.13867564499378205,-0.35990339517593386]},{"weights":[-0.7837521433830261,0.40435290336608889,1.1438019275665284,0.24260127544403077,-1.0764888525009156,1.2191953659057618,0.8110181093215942,-0.15284910798072816]}]}],"biasLayers":[{"biases":[-1.173736572265625,0.7142375111579895,-0.850665271282196,-0.9196041226387024,-0.7558661103248596,0.156900554895401,0.07834203541278839,-0.519932746887207]},{"biases":[-0.3285222351551056,-0.7853305339813232,-0.6010043025016785,-1.1568149328231812,-0.39611920714378359,0.30832090973854067,1.444583535194397,0.24819421768188477]},{"biases":[-0.7264271378517151,-1.035173773765564,0.04949696734547615,-1.5471378564834595,-0.598415732383728,1.021395206451416,-0.10936817526817322,-0.1637069433927536]},{"biases":[0.0026331543922424318,0.12326943129301071,-1.5787266492843629,0.28976407647132876,-0.6679604053497315,-0.9168030023574829,-0.5771949291229248,0.441145122051239]}],"outputBiases":[0.05402757599949837,-0.13810661435127259],"outputWeights":[{"weights":[-1.708853006362915,0.08433063328266144,-0.13220904767513276,2.1608951091766359,0.004156691953539848,1.137520670890808,-0.11114411056041718,0.20016218721866609]},{"weights":[-0.4622686207294464,-1.806525707244873,-0.2936813235282898,0.1731436550617218,0.7904921174049377,0.9388359785079956,-1.4682527780532838,-0.9304712414741516]}]},{"weightLayers":[{"nodes":[{"weights":[-0.6107447743415833,1.201027750968933,-1.7902908325195313,-2.4385366439819338,-0.6337949633598328,0.6473122835159302,-0.9375249147415161,0.11822938919067383,-2.6684093475341799,-1.0242724418640137,-1.1672056913375855,0.4463033974170685]},{"weights":[0.9018853306770325,0.07661277055740357,1.38051176071167,-1.3350296020507813,0.5171767473220825,-0.5735777020454407,0.051374875009059909,1.4865202903747559,-0.9786331057548523,1.0785621404647828,-0.34654951095581057,1.6623157262802125]},{"weights":[2.0278801918029787,0.05567573010921478,-0.8543092012405396,-0.23321552574634553,-0.19833752512931825,0.9045400023460388,0.8007843494415283,0.2007736712694168,-1.4390075206756592,0.3663926422595978,-0.49196070432662966,-1.5328787565231324]},{"weights":[-0.7646456956863403,-2.7149698734283449,0.6472973823547363,1.2081612348556519,0.5123336911201477,-0.9589575529098511,-0.47945860028266909,0.13960371911525727,1.8889431953430176,-1.6119804382324219,1.5482913255691529,3.150092601776123]},{"weights":[-0.46046358346939089,1.0775861740112305,-2.0283915996551515,-0.03854361176490784,-0.6692756414413452,0.7045854926109314,2.14890193939209,-0.0474545992910862,2.3209941387176515,1.3689539432525635,-1.81711745262146,0.8178743124008179]},{"weights":[-0.6405428647994995,0.10248246043920517,-1.7863185405731202,0.9132987856864929,0.3769265413284302,1.901716947555542,-0.4075152277946472,0.16113491356372834,-0.3742012679576874,0.056513942778110507,0.6999245285987854,-2.2928380966186525]},{"weights":[1.8136662244796754,1.0332152843475342,-0.05941551923751831,1.6561897993087769,0.11399766802787781,1.135644555091858,-0.8842057585716248,-0.20452433824539185,0.10193046927452088,3.1320033073425295,-2.0511229038238527,-0.3396488130092621]},{"weights":[0.5768366456031799,-0.9668673872947693,0.3427932560443878,-2.160010576248169,-2.6633460521698,1.5015124082565308,-0.8128871917724609,-0.7356469631195068,0.6629130840301514,-1.2946062088012696,-0.3304334282875061,0.4066617786884308]}]},{"nodes":[{"weights":[0.006357401609420776,-0.041730254888534549,-1.427859902381897,0.8296906352043152,-0.587873101234436,0.10095800459384918,-0.7224110960960388,-0.39433127641677859]},{"weights":[-1.2002804279327393,0.48814013600349429,-0.13728013634681703,-1.3415203094482422,1.8648900985717774,0.9226623177528381,0.8917348384857178,-0.46443942189216616]},{"weights":[-0.10142122209072113,-0.27686017751693728,1.2364641427993775,0.17123112082481385,-0.6879607439041138,0.6320686340332031,-0.6737363338470459,-0.49552175402641299]},{"weights":[-1.088809609413147,-0.3410695195198059,0.35815972089767458,2.7607274055480959,1.5593348741531373,-1.1574174165725709,0.362097829580307,-0.4928201138973236]},{"weights":[1.1521121263504029,1.8994539976119996,0.6811167001724243,0.008950689807534218,0.8047634959220886,0.07610931992530823,-0.8909300565719605,-0.9544532299041748]},{"weights":[1.200188159942627,0.412883996963501,1.3288923501968384,0.8934998512268066,-0.45924490690231326,1.3173261880874634,0.04667365923523903,-1.0386346578598023]},{"weights":[-0.01596839725971222,-0.1985422670841217,0.918361246585846,-0.7678573727607727,0.12852652370929719,2.795614719390869,-0.5044899582862854,0.5661340951919556]},{"weights":[0.4518128037452698,-0.7390904426574707,0.6980903148651123,-1.5874489545822144,-1.9220677614212037,0.1444118171930313,0.8531826734542847,0.15864267945289613]}]},{"nodes":[{"weights":[0.23838087916374207,2.4945573806762697,-0.5757293701171875,0.2639314532279968,-1.8612635135650635,1.1110907793045045,0.2601674795150757,-1.0659356117248536]},{"weights":[0.6297938227653503,-1.7350636720657349,0.15354415774345399,-1.1942932605743409,0.39374685287475588,0.5348962545394898,-0.5044620037078857,1.6257712841033936]},{"weights":[-0.9141159057617188,-1.6358226537704468,0.8019195199012756,1.3183131217956544,0.41786184906959536,0.7972562909126282,0.372434139251709,-0.5511177182197571]},{"weights":[-0.24711765348911286,0.9121862649917603,-0.5100287199020386,-1.0087448358535767,2.1937665939331056,2.169513463973999,-1.8506509065628052,-0.08709149062633515]},{"weights":[-1.6055834293365479,0.34866422414779665,-1.2113244533538819,0.019370412454009057,-0.8384571075439453,1.4407256841659547,-0.46227532625198367,0.16847282648086549]},{"weights":[-1.3950397968292237,-0.8585020899772644,-0.9560132026672363,-0.8460075259208679,-0.9346166253089905,0.5985437631607056,-0.7348816394805908,0.8255398869514465]},{"weights":[0.05489027872681618,0.9953582286834717,-1.5388082265853882,-0.9370355010032654,-0.11580239236354828,0.4374440908432007,-0.3236517906188965,-1.5461314916610718]},{"weights":[1.0262376070022584,-0.3529597818851471,1.215996503829956,1.1544926166534424,-0.22724436223506928,0.41698747873306277,-0.6818105578422546,-1.055411458015442]}]},{"nodes":[{"weights":[-1.3086028099060059,0.14057791233062745,-1.2680469751358033,1.1564379930496216,0.06306302547454834,0.5041064023971558,-0.8127371072769165,-0.283403217792511]},{"weights":[-0.6292513608932495,0.8680553436279297,0.00266183540225029,2.7738137245178224,0.5546442866325378,0.4070731997489929,1.6039668321609498,0.4753587245941162]},{"weights":[-0.8865222930908203,-0.6100661754608154,-0.7704266309738159,-1.0015236139297486,0.3045959174633026,-0.793160080909729,0.1970568150281906,1.888704538345337]},{"weights":[-0.23243370652198792,-0.37520816922187807,-0.14442110061645509,0.769748330116272,-0.8353169560432434,-0.2693486213684082,0.43227800726890566,-0.3281366229057312]},{"weights":[0.7707733511924744,-0.16004204750061036,0.31539398431777956,1.59340500831604,1.730858325958252,0.5892329216003418,-0.3666720390319824,0.8367887735366821]},{"weights":[0.931724488735199,0.4160892069339752,-0.9925894737243652,0.4079553484916687,-1.2475281953811646,1.2989715337753297,-0.7568511962890625,-0.8999416828155518]},{"weights":[-0.9925470948219299,-0.18303044140338899,-0.5999724864959717,-1.395385980606079,0.33428969979286196,-1.2194445133209229,-0.12132541090250015,-0.4247373044490814]},{"weights":[-0.7756072282791138,0.2841463088989258,1.1182770729064942,0.3609834909439087,-1.1148070096969605,1.2924412488937379,0.6741553544998169,-0.1118600070476532]}]}],"biasLayers":[{"biases":[-1.2194278240203858,0.7177042961120606,-0.859570324420929,-0.9506509900093079,-0.6995214819908142,0.19451762735843659,0.08705393970012665,-0.5786474943161011]},{"biases":[-0.37014323472976687,-0.6596090793609619,-0.6369501948356628,-1.156788945198059,-0.3952062129974365,0.2885529398918152,1.422914981842041,0.19480186700820924]},{"biases":[-0.6963909864425659,-1.0399924516677857,0.044154100120067599,-1.4996711015701295,-0.5546606183052063,1.0078011751174927,-0.11888876557350159,-0.3074018955230713]},{"biases":[-0.024526115506887437,0.25030162930488589,-1.508415937423706,0.2702963948249817,-0.7033675312995911,-0.9057955741882324,-0.5286740064620972,0.4743040204048157]}],"outputBiases":[-0.05554214119911194,-0.19571489095687867],"outputWeights":[{"weights":[-1.700859785079956,0.09934373199939728,-0.18936693668365479,2.096407175064087,-0.007264591753482819,1.0484960079193116,-0.018983736634254457,0.2050679475069046]},{"weights":[-0.5224979519844055,-1.8198843002319337,-0.3495217561721802,0.15602150559425355,0.7979846000671387,0.8363657593727112,-1.4393627643585206,-0.9896661043167114]}]},{"weightLayers":[{"nodes":[{"weights":[-0.5112498998641968,1.1341663599014283,-1.7249386310577393,-2.431278705596924,-0.545532763004303,0.6271119117736816,-1.0260727405548096,0.08250704407691956,-2.595350980758667,-1.1170921325683594,-1.06032133102417,0.40355589985847475]},{"weights":[0.9403784871101379,0.1609012931585312,1.334191083908081,-1.313657283782959,0.4293777048587799,-0.5591453313827515,-0.026399482041597368,1.4827964305877686,-0.9957548379898071,1.2090743780136109,-0.37508177757263186,1.603039264678955]},{"weights":[1.9941625595092774,0.14636841416358949,-0.8307512998580933,-0.12715432047843934,-0.22184565663337708,0.8917516469955444,0.8629977703094482,0.11209778487682343,-1.4804984331130982,0.4070267379283905,-0.5295899510383606,-1.5557490587234498]},{"weights":[-0.9281273484230042,-2.614245653152466,0.6942518949508667,1.2524609565734864,0.44979605078697207,-0.9042315483093262,-0.37694990634918215,0.23576407134532929,1.9002716541290284,-1.548450231552124,1.4156107902526856,3.27516508102417]},{"weights":[-0.3378656506538391,1.075313687324524,-2.067596673965454,-0.023800700902938844,-0.504097580909729,0.7214569449424744,2.04121732711792,-0.04430895671248436,2.1426706314086916,1.5169755220413209,-1.8071292638778687,0.6807156801223755]},{"weights":[-0.6554914712905884,0.11945131421089173,-1.7162946462631226,0.9013673067092896,0.39687713980674746,1.8982068300247193,-0.5556332468986511,0.10633693635463715,-0.4289868175983429,-0.0027397945523262026,0.6059295535087586,-2.177953004837036]},{"weights":[1.8252615928649903,1.091577172279358,-0.11695197224617005,1.7057700157165528,0.23318155109882356,1.0243250131607056,-0.8756574988365173,-0.23497796058654786,0.07258962094783783,3.152407646179199,-2.0548925399780275,-0.33292874693870547]},{"weights":[0.5746778845787048,-1.0839022397994996,0.29473185539245608,-2.0579442977905275,-2.632761240005493,1.555397868156433,-0.7939687371253967,-0.6053375601768494,0.6608745455741882,-1.2354986667633057,-0.26589494943618777,0.41494572162628176]}]},{"nodes":[{"weights":[0.08241856098175049,-0.12927231192588807,-1.4664853811264039,0.7883199453353882,-0.5438656210899353,-0.0745127946138382,-0.7782984375953674,-0.4669235348701477]},{"weights":[-1.2882031202316285,0.41838762164115908,-0.10682427883148194,-1.3459967374801636,1.8271911144256592,0.9838693737983704,0.9135921001434326,-0.46378999948501589]},{"weights":[-0.12461841106414795,-0.24740754067897798,1.2580125331878663,0.21083873510360719,-0.7210193872451782,0.7600356936454773,-0.6610575914382935,-0.46945253014564516]},{"weights":[-0.9772935509681702,-0.32626932859420779,0.3517158627510071,2.870450019836426,1.5629976987838746,-1.2067005634307862,0.34417465329170229,-0.5894574522972107]},{"weights":[1.1462265253067017,2.0061566829681398,0.7576341032981873,-0.09799234569072724,0.8343276977539063,0.12248978763818741,-0.8557190895080566,-0.8219797611236572]},{"weights":[1.301579236984253,0.4059310257434845,1.2511416673660279,0.8050336241722107,-0.4911118149757385,1.2514864206314088,0.09190957248210907,-1.0331512689590455]},{"weights":[-0.04668515548110008,-0.1101992130279541,0.834931492805481,-0.7201011776924133,0.14840641617774964,2.8700497150421144,-0.7140592336654663,0.3940999507904053]},{"weights":[0.4377225935459137,-0.682499349117279,0.5954709053039551,-1.5340741872787476,-1.9708194732666016,0.19683235883712769,0.8996544480323792,0.2623024582862854]}]},{"nodes":[{"weights":[0.23809297382831574,2.538139581680298,-0.6413251757621765,0.37142643332481387,-1.8029415607452393,1.1127084493637086,0.2867383062839508,-1.0800583362579346]},{"weights":[0.6100764274597168,-1.6769121885299683,0.007128478959202766,-1.2676907777786255,0.370124876499176,0.5464239120483398,-0.5831177234649658,1.6594491004943848]},{"weights":[-0.9479108452796936,-1.5494048595428467,0.7823939919471741,1.3297739028930665,0.4483816921710968,0.7882668375968933,0.3657868504524231,-0.5090847611427307]},{"weights":[-0.30353274941444399,0.8517324924468994,-0.5012511610984802,-1.0359668731689454,2.1044270992279054,2.200377941131592,-1.8216102123260499,-0.13071796298027039]},{"weights":[-1.5672507286071778,0.25817930698394778,-1.1829147338867188,-0.004620999097824097,-0.9833391308784485,1.3962576389312745,-0.49339380860328677,0.1549784541130066]},{"weights":[-1.4723563194274903,-0.9455966949462891,-1.0267071723937989,-0.7959962487220764,-1.0462770462036133,0.49808773398399355,-0.7261530756950378,0.818314790725708]},{"weights":[0.01050107553601265,0.9547110199928284,-1.5149755477905274,-1.0761756896972657,-0.08665686845779419,0.3939286172389984,-0.3465474545955658,-1.4730030298233033]},{"weights":[1.0809266567230225,-0.2619369924068451,1.3129140138626099,1.217413067817688,-0.24007831513881684,0.4269881546497345,-0.665503740310669,-1.0123878717422486]}]},{"nodes":[{"weights":[-1.252011775970459,0.13357660174369813,-1.2791388034820557,1.3015021085739136,0.025487396866083146,0.4206498861312866,-0.795985221862793,-0.34128275513648989]},{"weights":[-0.649776041507721,0.8875415921211243,0.1346767097711563,2.8248841762542726,0.47350311279296877,0.3599799871444702,1.4773164987564088,0.4355621337890625]},{"weights":[-0.9551430940628052,-0.6624026298522949,-0.8894841074943543,-0.8148754239082336,0.3470174968242645,-0.809776782989502,0.24986609816551209,1.8377448320388795]},{"weights":[-0.2238004207611084,-0.4593028724193573,-0.21433697640895844,0.6573220491409302,-0.8373463749885559,-0.2159540355205536,0.4639919400215149,-0.35069116950035097]},{"weights":[0.6713157296180725,-0.12611258029937745,0.4024876356124878,1.6539554595947266,1.8072935342788697,0.5947101712226868,-0.38139545917510989,0.8614363670349121]},{"weights":[0.9502131938934326,0.3868444561958313,-0.8837414383888245,0.4757062494754791,-1.2611397504806519,1.3672000169754029,-0.6833621859550476,-0.9009829759597778]},{"weights":[-0.9598827362060547,-0.24201156198978425,-0.6013792753219605,-1.473657250404358,0.328355997800827,-1.2430973052978516,-0.12086346745491028,-0.32088273763656618]},{"weights":[-0.8208978176116943,0.3463268280029297,1.0918474197387696,0.17412911355495454,-1.1244851350784302,1.2190190553665162,0.7615900039672852,-0.09038466215133667]}]}],"biasLayers":[{"biases":[-1.1621253490447999,0.7036440968513489,-0.8246384263038635,-0.9271224737167358,-0.7650982737541199,0.13523970544338227,0.022898156195878984,-0.5179832577705383]},{"biases":[-0.3329620361328125,-0.7378273606300354,-0.6209242343902588,-1.169974446296692,-0.379920095205307,0.29581278562545779,1.4306560754776,0.2722122371196747]},{"biases":[-0.7992579936981201,-1.041402816772461,0.007112644612789154,-1.536547303199768,-0.6212694644927979,0.9928090572357178,-0.09792082011699677,-0.20499196648597718]},{"biases":[-0.040698401629924777,0.09835697710514069,-1.518792986869812,0.26686128973960879,-0.7017354965209961,-0.9337610602378845,-0.5628672242164612,0.44969770312309267]}],"outputBiases":[-0.017240192741155626,-0.12001760303974152],"outputWeights":[{"weights":[-1.761168360710144,0.07917436212301254,-0.14473514258861543,2.1031062602996828,-0.049267612397670749,1.0699691772460938,-0.0446469746530056,0.20188014209270478]},{"weights":[-0.4932776689529419,-1.7975136041641236,-0.2685864269733429,0.1612018495798111,0.7807018756866455,0.9372458457946777,-1.444609522819519,-0.8976709842681885]}]},{"weightLayers":[{"nodes":[{"weights":[-0.5533934235572815,1.2332854270935059,-1.6851708889007569,-2.4120755195617677,-0.6252336502075195,0.625731348991394,-1.047027349472046,0.06510931253433228,-2.720245122909546,-1.0586700439453126,-1.1231610774993897,0.42528441548347475]},{"weights":[0.8529015183448792,0.17506568133831025,1.3198171854019166,-1.3064534664154053,0.4751146733760834,-0.5993054509162903,0.08126181364059448,1.447656273841858,-0.9977630972862244,1.079116940498352,-0.29167070984840395,1.5481817722320557]},{"weights":[2.0599050521850588,0.050934746861457828,-0.9631683826446533,-0.1790739893913269,-0.23409709334373475,0.830964207649231,0.8185096979141235,0.17279845476150514,-1.3645392656326295,0.40112948417663576,-0.5243669152259827,-1.5942203998565674]},{"weights":[-0.9518231153488159,-2.6700234413146974,0.670724630355835,1.2406678199768067,0.4471896290779114,-0.955720067024231,-0.47315070033073428,0.14844481647014619,1.8995774984359742,-1.606680989265442,1.4062548875808716,3.246668577194214]},{"weights":[-0.3412500321865082,1.1644266843795777,-2.17222261428833,-0.0026847682893276216,-0.557679295539856,0.6809415221214294,2.080152988433838,-0.02085302770137787,2.241668462753296,1.4069838523864747,-1.842941403388977,0.621586263179779]},{"weights":[-0.6170435547828674,0.16067293286323548,-1.693312644958496,0.893131673336029,0.4717913568019867,1.9253425598144532,-0.5653212070465088,0.11627446115016937,-0.3279249668121338,0.09241168946027756,0.6198344230651856,-2.2102649211883547]},{"weights":[1.76881742477417,1.1061744689941407,-0.01149151474237442,1.6563260555267335,0.23099195957183839,1.0295485258102418,-0.8977911472320557,-0.141214057803154,0.07226428389549256,3.1609930992126467,-1.9864323139190674,-0.3474147617816925]},{"weights":[0.5626792907714844,-0.9650229215621948,0.24427813291549684,-2.1667916774749758,-2.724848508834839,1.5679707527160645,-0.8122782707214356,-0.5243554711341858,0.6282258033752441,-1.2312898635864258,-0.23284009099006654,0.3160480856895447]}]},{"nodes":[{"weights":[0.08097528666257858,-0.13980190455913545,-1.478484869003296,0.7765426635742188,-0.5277218818664551,-0.054606832563877109,-0.8031609058380127,-0.4319169521331787]},{"weights":[-1.243934154510498,0.3833325505256653,-0.19656291604042054,-1.2480089664459229,1.9011298418045045,0.9945845603942871,0.9054649472236633,-0.44296693801879885]},{"weights":[-0.04324904829263687,-0.2613184452056885,1.379949927330017,0.24595117568969727,-0.7013970017433167,0.7365865111351013,-0.5986727476119995,-0.42293399572372439]},{"weights":[-1.0574027299880982,-0.39301735162734988,0.30340662598609927,2.778125047683716,1.5881789922714234,-1.2167038917541505,0.34389978647232058,-0.5866165161132813]},{"weights":[1.1039984226226807,1.9323393106460572,0.7523564100265503,-0.015652276575565339,0.720766544342041,0.06572304666042328,-0.764259934425354,-0.8336319327354431]},{"weights":[1.282663345336914,0.4334087371826172,1.2770671844482422,0.8353996276855469,-0.46548041701316836,1.2021613121032715,0.06728490442037583,-0.9865094423294067]},{"weights":[0.03039640188217163,-0.17843122780323029,0.8706673979759216,-0.7404233813285828,0.16171956062316895,2.939901828765869,-0.6725748777389526,0.46266815066337588]},{"weights":[0.4322455823421478,-0.6680662631988525,0.6464096903800964,-1.5725396871566773,-2.0564961433410646,0.2411559820175171,0.9310358762741089,0.299091637134552]}]},{"nodes":[{"weights":[0.21160215139389039,2.5782999992370607,-0.6677486896514893,0.33130329847335818,-1.785570740699768,1.1372917890548707,0.2519828975200653,-1.0863760709762574]},{"weights":[0.5691299438476563,-1.628186821937561,0.10579779744148255,-1.2752861976623536,0.4034566581249237,0.5851024389266968,-0.5022029876708984,1.6286031007766724]},{"weights":[-0.9546511769294739,-1.5613685846328736,0.8548482060432434,1.300523281097412,0.5004408359527588,0.8177475333213806,0.2954023480415344,-0.5534866452217102]},{"weights":[-0.2330065667629242,0.9134661555290222,-0.5018848776817322,-1.1564103364944459,2.236340045928955,2.112290382385254,-1.8970777988433838,-0.13594597578048707]},{"weights":[-1.6550465822219849,0.20361630618572236,-1.2946321964263917,0.03352431207895279,-0.8759822845458984,1.4131617546081544,-0.4018611013889313,0.16323311626911164]},{"weights":[-1.469851016998291,-0.9526785612106323,-0.9164440631866455,-0.8097379207611084,-0.992433488368988,0.47550109028816225,-0.723208487033844,0.8628625273704529]},{"weights":[0.022586598992347719,0.9765655994415283,-1.4775406122207642,-0.9314101934432983,-0.1875244826078415,0.48218005895614626,-0.29925042390823367,-1.4603215456008912]},{"weights":[1.117586374282837,-0.2842986583709717,1.2141717672348023,1.2675760984420777,-0.28727060556411745,0.4084870219230652,-0.6777490377426148,-1.0431945323944092]}]},{"nodes":[{"weights":[-1.3112266063690186,0.08238677680492401,-1.2581136226654053,1.2432169914245606,0.07798345386981964,0.5324319005012512,-0.7649734020233154,-0.368830144405365]},{"weights":[-0.6524655818939209,0.9092240333557129,0.061110809445381168,2.7957303524017336,0.4344238042831421,0.3974308669567108,1.4478851556777955,0.4782160520553589]},{"weights":[-0.9896970391273499,-0.6386815905570984,-0.9499918222427368,-0.8494563102722168,0.3558565080165863,-0.7959654927253723,0.28279751539230349,1.8413457870483399]},{"weights":[-0.22684869170188905,-0.3841226100921631,-0.24083171784877778,0.7144540548324585,-0.8418451547622681,-0.26303133368492129,0.37501853704452517,-0.4226040542125702]},{"weights":[0.6675783395767212,-0.11946374177932739,0.365590900182724,1.6160252094268799,1.6942774057388306,0.5257113575935364,-0.26419317722320559,0.8626179695129395]},{"weights":[0.9898476004600525,0.39707517623901369,-0.8918982148170471,0.39905843138694765,-1.3594411611557007,1.3790630102157593,-0.6900515556335449,-1.0047719478607178]},{"weights":[-0.996296226978302,-0.2620648443698883,-0.536251425743103,-1.4391943216323853,0.3589792251586914,-1.2653712034225464,-0.10769589245319367,-0.4087938964366913]},{"weights":[-0.7926055192947388,0.2968704402446747,1.0229904651641846,0.198308065533638,-1.1597505807876588,1.3371318578720093,0.7788090705871582,-0.12422262132167816]}]}],"biasLayers":[{"biases":[-1.1728564500808716,0.8150895237922669,-0.9139822125434876,-0.9262396693229675,-0.7200080752372742,0.09310319274663925,0.020476408302783967,-0.5359477400779724]},{"biases":[-0.3787376582622528,-0.7530916333198547,-0.6102693676948547,-1.1160869598388672,-0.323620468378067,0.31428858637809756,1.5146596431732178,0.19476008415222169]},{"biases":[-0.7883256673812866,-1.0702072381973267,0.028974175453186036,-1.5292962789535523,-0.5385655760765076,0.9784691333770752,-0.14349427819252015,-0.2284829169511795]},{"biases":[0.022164806723594667,0.16075745224952699,-1.5238053798675538,0.2431299388408661,-0.7332059741020203,-0.9635542631149292,-0.6202355027198792,0.42183154821395876]}],"outputBiases":[-0.046097174286842349,-0.030090294778347017],"outputWeights":[{"weights":[-1.7193610668182374,0.12542226910591126,-0.050857484340667728,2.177870512008667,-0.045834142714738849,1.072688102722168,-0.06519150733947754,0.2564837634563446]},{"weights":[-0.4348476827144623,-1.7697913646697999,-0.2886110544204712,0.15404453873634339,0.7931095361709595,0.9512286186218262,-1.4314204454421998,-0.9084372520446777]}]}]}