{"nets":[{"weightLayers":[{"nodes":[{"weights":[-0.46663936972618105,1.1706805229187012,-1.7359040975570679,-2.463906764984131,-0.5697546601295471,0.6977095007896423,-1.0314037799835206,0.11525104194879532,-2.6043848991394045,-1.141024112701416,-1.083367943763733,0.34528493881225588]},{"weights":[0.949923038482666,0.20568867027759553,1.3846508264541627,-1.3662025928497315,0.47448039054870608,-0.6267725825309753,-0.002143228892236948,1.491298794746399,-1.0192002058029175,1.1942856311798096,-0.3138173520565033,1.5566984415054322]},{"weights":[2.0901639461517336,0.1316709965467453,-0.8404117226600647,-0.14476804435253144,-0.16290396451950074,0.910713255405426,0.8993059992790222,0.17250335216522218,-1.396715760231018,0.47235962748527529,-0.5407978296279907,-1.5004526376724244]},{"weights":[-0.8988879323005676,-2.6679604053497316,0.7052910327911377,1.2642146348953248,0.5198659896850586,-0.9720417857170105,-0.45769235491752627,0.2190866768360138,1.8694380521774293,-1.5800611972808838,1.378954529762268,3.262164354324341]},{"weights":[-0.41622233390808108,1.081735372543335,-2.0486114025115969,-0.06199638545513153,-0.5251409411430359,0.6814554929733276,2.0649099349975588,-0.06174613907933235,2.1531190872192385,1.4823778867721558,-1.7870768308639527,0.728923499584198]},{"weights":[-0.7030328512191773,0.16825538873672486,-1.7643842697143555,0.8500452637672424,0.4631611108779907,1.8811757564544678,-0.4731159508228302,0.1321517676115036,-0.440075159072876,0.00287437392398715,0.680568516254425,-2.213064670562744]},{"weights":[1.7784368991851807,1.0805823802947999,-0.058627936989068988,1.6776270866394044,0.16690832376480103,1.036637306213379,-0.8537949919700623,-0.18780221045017243,0.16240353882312776,3.134803056716919,-2.0638482570648195,-0.33229318261146548]},{"weights":[0.5776937007904053,-1.0732907056808472,0.326639860868454,-2.0486152172088625,-2.5981197357177736,1.585349440574646,-0.8245364427566528,-0.6014937162399292,0.7215876579284668,-1.2575732469558716,-0.27837100625038149,0.4040261507034302]}]},{"nodes":[{"weights":[0.0039614285342395309,-0.03881904482841492,-1.4748854637145997,0.7380870580673218,-0.4696025550365448,-0.05697372555732727,-0.7436917424201965,-0.46465951204299929]},{"weights":[-1.3086215257644654,0.37125542759895327,-0.18455354869365693,-1.322075366973877,1.8517131805419922,0.9635197520256043,0.9420156478881836,-0.46710941195487978]},{"weights":[-0.11553958803415299,-0.21182677149772645,1.294386625289917,0.16359247267246247,-0.8023356795310974,0.6977884769439697,-0.6419320106506348,-0.42583340406417849]},{"weights":[-0.9578416347503662,-0.3768347203731537,0.2747073173522949,2.7855522632598879,1.5337846279144288,-1.2651299238204957,0.3666662871837616,-0.6373690366744995]},{"weights":[1.1465011835098267,2.0490548610687258,0.8022634983062744,-0.12926961481571198,0.8532232642173767,0.06028679758310318,-0.8802185654640198,-0.834141731262207]},{"weights":[1.321071743965149,0.43009623885154726,1.2722644805908204,0.8007071018218994,-0.4429459273815155,1.2306032180786133,0.03355543687939644,-1.0147489309310914]},{"weights":[-0.07817251980304718,-0.19345399737358094,0.7603698372840881,-0.6557290554046631,0.11681774258613587,2.8592798709869386,-0.7210171818733215,0.44654160737991335]},{"weights":[0.3850076496601105,-0.714476466178894,0.6095383763313294,-1.4814491271972657,-2.007793426513672,0.2570115923881531,0.9251019954681397,0.19077765941619874]}]},{"nodes":[{"weights":[0.28405237197875979,2.591491460800171,-0.7410306334495544,0.3889687657356262,-1.745628833770752,1.042650580406189,0.2869186997413635,-1.0921509265899659]},{"weights":[0.6282133460044861,-1.7279280424118043,0.037433188408613208,-1.321608066558838,0.4082302451133728,0.6235858798027039,-0.5688892602920532,1.645216464996338]},{"weights":[-0.97947758436203,-1.4825199842453004,0.798005998134613,1.3237996101379395,0.4461970627307892,0.8590747117996216,0.3376427888870239,-0.5421547889709473]},{"weights":[-0.24791713058948518,0.8327887058258057,-0.4781571328639984,-1.0793918371200562,2.195681571960449,2.1913626194000246,-1.807257890701294,-0.12035171687602997]},{"weights":[-1.5957732200622559,0.24677178263664246,-1.1880637407302857,0.11169905215501785,-0.9454129934310913,1.4471039772033692,-0.41707202792167666,0.097025066614151]},{"weights":[-1.5008206367492676,-0.9335833191871643,-0.9903063774108887,-0.8300928473472595,-0.9596839547157288,0.43713098764419558,-0.788792610168457,0.8596234321594238]},{"weights":[-0.0479239784181118,0.9542236924171448,-1.5136648416519166,-1.0590345859527588,-0.09299924969673157,0.40459340810775759,-0.36060118675231936,-1.5449355840682984]},{"weights":[1.0477681159973145,-0.23288708925247193,1.2893491983413697,1.2788738012313843,-0.2575944662094116,0.47673675417900088,-0.688705563545227,-0.9418165683746338]}]},{"nodes":[{"weights":[-1.2032009363174439,0.16530069708824159,-1.2978562116622925,1.2673057317733765,-0.026992611587047578,0.40168580412864687,-0.8155401945114136,-0.3830432891845703]},{"weights":[-0.7231819033622742,0.9447401165962219,0.08196388185024262,2.8186397552490236,0.490329772233963,0.34781840443611147,1.5252633094787598,0.3890243172645569]},{"weights":[-0.9624050855636597,-0.6394166350364685,-0.9265477657318115,-0.8281588554382324,0.4267139136791229,-0.8570971488952637,0.28722742199897768,1.8486225605010987]},{"weights":[-0.22085249423980714,-0.44649630784988406,-0.15240994095802308,0.6897472739219666,-0.813802182674408,-0.2773367166519165,0.4426625072956085,-0.33551985025405886]},{"weights":[0.6106194257736206,-0.11072944104671478,0.4161826968193054,1.6371715068817139,1.8029110431671143,0.5620684623718262,-0.329382061958313,0.8914655447006226]},{"weights":[0.9228572845458984,0.385002464056015,-0.9116689562797546,0.44600412249565127,-1.3392448425292969,1.3811897039413453,-0.6638672351837158,-0.8261763453483582]},{"weights":[-0.9817096590995789,-0.13324758410453797,-0.5783168077468872,-1.4776086807250977,0.4032140374183655,-1.2406879663467408,-0.14438702166080476,-0.3752463757991791]},{"weights":[-0.7863269448280335,0.3945780396461487,1.191382884979248,0.23963357508182527,-1.0844480991363526,1.2121626138687134,0.8318597078323364,-0.15037524700164796]}]}],"biasLayers":[{"biases":[-1.1624327898025513,0.7264435887336731,-0.8522510528564453,-0.9005880355834961,-0.7988047003746033,0.12111938744783402,0.08248000591993332,-0.523426353931427]},{"biases":[-0.3542233407497406,-0.7808337807655335,-0.6266666650772095,-1.1204657554626465,-0.3851277828216553,0.32653361558914187,1.42523992061615,0.2289058417081833]},{"biases":[-0.7195705771446228,-1.029800534248352,0.02769988775253296,-1.5395134687423707,-0.6178849935531616,0.9875234365463257,-0.09467067569494248,-0.15287277102470399]},{"biases":[-0.01961832493543625,0.14058296382427216,-1.6009663343429566,0.2658393979072571,-0.6466203927993774,-0.9206412434577942,-0.56883704662323,0.4816403090953827]}],"outputBiases":[0.000933594536036253,-0.13627628982067109],"outputWeights":[{"weights":[-1.7283430099487305,0.10549598187208176,-0.1423107385635376,2.142723560333252,-0.004861475899815559,1.1706453561782838,-0.10011350363492966,0.18571989238262177]},{"weights":[-0.43061551451683047,-1.8228892087936402,-0.30862852931022646,0.15649381279945374,0.778701663017273,0.9308627247810364,-1.4701156616210938,-0.9372119903564453]}]},{"weightLayers":[{"nodes":[{"weights":[-0.46744847297668459,1.1712286472320557,-1.735207200050354,-2.463482141494751,-0.5697752833366394,0.6983104944229126,-1.0311036109924317,0.11522681266069412,-2.6050784587860109,-1.1403189897537232,-1.0838792324066163,0.3445105254650116]},{"weights":[0.9500545859336853,0.20522071421146394,1.385133981704712,-1.3665088415145875,0.4747610092163086,-0.6263553500175476,-0.0013425421202555299,1.4914122819900513,-1.0201284885406495,1.1945874691009522,-0.3143898844718933,1.5560786724090577]},{"weights":[2.0909504890441896,0.13043814897537232,-0.840239942073822,-0.14416609704494477,-0.16380566358566285,0.9106162190437317,0.898736298084259,0.17248766124248506,-1.3972638845443726,0.4723624587059021,-0.5412678122520447,-1.5009846687316895]},{"weights":[-0.8989658951759338,-2.6687510013580324,0.7047281861305237,1.2639493942260743,0.5198999047279358,-0.9714090824127197,-0.4586939811706543,0.2196975201368332,1.8704369068145753,-1.5801619291305543,1.3790684938430787,3.2618908882141115]},{"weights":[-0.4159308969974518,1.0815539360046387,-2.048614263534546,-0.06298796087503433,-0.5247136354446411,0.6809980273246765,2.0645763874053957,-0.06175835803151131,2.15328311920166,1.4829106330871583,-1.7863237857818604,0.7280314564704895]},{"weights":[-0.7036353349685669,0.16803237795829774,-1.764049768447876,0.8498048782348633,0.46404096484184267,1.881355881690979,-0.4733932912349701,0.1322573721408844,-0.4402203857898712,0.0026882633101195099,0.6813849210739136,-2.2129287719726564]},{"weights":[1.7785751819610596,1.0798572301864625,-0.058445338159799579,1.6779704093933106,0.1670883595943451,1.0370286703109742,-0.8531396985054016,-0.1867237240076065,0.16276969015598298,3.1352007389068605,-2.0630929470062258,-0.33191752433776858]},{"weights":[0.5782328248023987,-1.0732699632644654,0.3265388309955597,-2.048569440841675,-2.5985054969787599,1.5855140686035157,-0.8246744871139526,-0.6020310521125794,0.7218952178955078,-1.2571706771850587,-0.27773812413215639,0.404354989528656]}]},{"nodes":[{"weights":[0.003550946479663253,-0.03882460296154022,-1.4742817878723145,0.737755298614502,-0.46912410855293276,-0.05737106502056122,-0.743932843208313,-0.46441414952278139]},{"weights":[-1.3094274997711182,0.3708636164665222,-0.1848696917295456,-1.3220239877700806,1.8521199226379395,0.9645289778709412,0.9425814747810364,-0.4673239588737488]},{"weights":[-0.11470422893762589,-0.2117396593093872,1.2935900688171387,0.163322314620018,-0.8026355504989624,0.69791179895401,-0.6411547660827637,-0.4257996678352356]},{"weights":[-0.9578711986541748,-0.3765837550163269,0.2739456593990326,2.785245418548584,1.532887578010559,-1.2654999494552613,0.36529403924942019,-0.6378281116485596]},{"weights":[1.146152377128601,2.0486903190612795,0.8020736575126648,-0.12887582182884217,0.8530149459838867,0.0594218447804451,-0.8804956674575806,-0.834363579750061]},{"weights":[1.3216065168380738,0.43088626861572268,1.272681474685669,0.8009953498840332,-0.4429861009120941,1.2313168048858643,0.033485766500234607,-1.0142298936843873]},{"weights":[-0.07812003791332245,-0.19226691126823426,0.7600723505020142,-0.656978189945221,0.11630914360284805,2.85939359664917,-0.7210564613342285,0.4464855492115021]},{"weights":[0.38515302538871767,-0.7140434980392456,0.609356701374054,-1.4824131727218629,-2.006726026535034,0.2563612461090088,0.9254592061042786,0.19132375717163087]}]},{"nodes":[{"weights":[0.28369277715682986,2.591639995574951,-0.7406750321388245,0.38876938819885256,-1.7448794841766358,1.0430172681808472,0.2861102223396301,-1.0921001434326172]},{"weights":[0.6287358403205872,-1.7268991470336915,0.03796633332967758,-1.3214247226715088,0.40842917561531069,0.624093770980835,-0.5679000616073608,1.6453356742858887]},{"weights":[-0.9785857200622559,-1.4826174974441529,0.7971968054771423,1.3240070343017579,0.4456920623779297,0.8599677085876465,0.3379276990890503,-0.5422884225845337]},{"weights":[-0.24698002636432649,0.8325092196464539,-0.4786541759967804,-1.0792700052261353,2.1956682205200197,2.1910922527313234,-1.806761384010315,-0.11989486217498779]},{"weights":[-1.5953387022018433,0.24732427299022675,-1.186877965927124,0.11081011593341828,-0.9462588429450989,1.4465410709381104,-0.41805610060691836,0.09769217669963837]},{"weights":[-1.5009278059005738,-0.932647705078125,-0.9905846118927002,-0.8301221132278442,-0.9597590565681458,0.4374788999557495,-0.7882172465324402,0.8599773645401001]},{"weights":[-0.04805311933159828,0.9541437029838562,-1.5144871473312379,-1.0592752695083619,-0.09354976564645767,0.4053178131580353,-0.3609418272972107,-1.544312596321106]},{"weights":[1.0470643043518067,-0.2326701134443283,1.2898030281066895,1.280266523361206,-0.2577030658721924,0.4759906530380249,-0.6884707808494568,-0.9421744346618652]}]},{"nodes":[{"weights":[-1.2030669450759888,0.16494295001029969,-1.2987892627716065,1.267973780632019,-0.027031531557440759,0.40132370591163638,-0.8159983158111572,-0.38276544213294985]},{"weights":[-0.7226248383522034,0.9437803626060486,0.08107656985521317,2.817878484725952,0.49084708094596865,0.34817880392074587,1.5252946615219117,0.3891148865222931]},{"weights":[-0.9632393717765808,-0.6395454406738281,-0.9264198541641235,-0.8282601833343506,0.4266931414604187,-0.8576226830482483,0.28716063499450686,1.8482674360275269]},{"weights":[-0.22137178480625153,-0.44730255007743838,-0.15237031877040864,0.6907618045806885,-0.8126785755157471,-0.27662384510040285,0.44120579957962038,-0.3346129357814789]},{"weights":[0.6101405024528503,-0.11095135658979416,0.4159136712551117,1.6384084224700928,1.8027853965759278,0.5628642439842224,-0.32876652479171755,0.8918085098266602]},{"weights":[0.9227717518806458,0.38548600673675539,-0.9121447801589966,0.44679757952690127,-1.338365912437439,1.3814553022384644,-0.6642448306083679,-0.8260327577590942]},{"weights":[-0.9821098446846008,-0.13422295451164246,-0.5772092938423157,-1.4775649309158326,0.402436763048172,-1.241607427597046,-0.14340615272521974,-0.37349626421928408]},{"weights":[-0.7868630886077881,0.39364346861839297,1.1904165744781495,0.23969168961048127,-1.084028959274292,1.212296485900879,0.8326243162155151,-0.15111055970191956]}]}],"biasLayers":[{"biases":[-1.1632659435272217,0.7267171144485474,-0.8520963191986084,-0.9003167152404785,-0.7985438704490662,0.12147098779678345,0.08161752671003342,-0.523302435874939]},{"biases":[-0.35393205285072329,-0.7818030714988709,-0.6265520453453064,-1.1210205554962159,-0.3836306631565094,0.3260095417499542,1.4250859022140504,0.22839437425136567]},{"biases":[-0.7195642590522766,-1.030246376991272,0.02848183549940586,-1.5384124517440797,-0.6183061599731445,0.9867339134216309,-0.09404593706130982,-0.15277917683124543]},{"biases":[-0.01894623599946499,0.14055365324020387,-1.6008538007736207,0.26637521386146548,-0.6460342407226563,-0.921649694442749,-0.5684096813201904,0.4807181656360626]}],"outputBiases":[0.0017598372651264072,-0.13624544441699983],"outputWeights":[{"weights":[-1.727555751800537,0.10527491569519043,-0.1429714411497116,2.143317937850952,-0.005147137213498354,1.1697765588760377,-0.10012190788984299,0.18558262288570405]},{"weights":[-0.43044912815093996,-1.8226242065429688,-0.30941203236579897,0.15582618117332459,0.7795599699020386,0.9311650991439819,-1.4697144031524659,-0.93733811378479]}]},{"weightLayers":[{"nodes":[{"weights":[-0.4670386016368866,1.1704792976379395,-1.7364345788955689,-2.4636189937591554,-0.5702379941940308,0.6979069709777832,-1.0313907861709595,0.11485525220632553,-2.604630470275879,-1.1413441896438599,-1.0836952924728394,0.34461450576782229]},{"weights":[0.9502801895141602,0.20539619028568269,1.3849461078643799,-1.3661426305770875,0.4744754731655121,-0.626366138458252,-0.002505871234461665,1.4911317825317383,-1.0196515321731568,1.1937642097473145,-0.3145518898963928,1.5566400289535523]},{"weights":[2.089625835418701,0.13163502514362336,-0.8402073979377747,-0.14526455104351045,-0.16357795894145966,0.9109007716178894,0.8998797535896301,0.17285026609897614,-1.3972424268722535,0.4721335172653198,-0.541412889957428,-1.5003529787063599]},{"weights":[-0.8988824486732483,-2.6685965061187746,0.7055631279945374,1.2645034790039063,0.5196964740753174,-0.9720179438591003,-0.4581972062587738,0.21876098215579987,1.8691074848175049,-1.5801074504852296,1.3782200813293458,3.262448310852051]},{"weights":[-0.4161238670349121,1.081767201423645,-2.048022747039795,-0.06206181272864342,-0.5256333947181702,0.6805669665336609,2.064491033554077,-0.06160958111286163,2.153769016265869,1.4820624589920045,-1.7870956659317017,0.7294431328773499]},{"weights":[-0.7032220363616943,0.16846495866775514,-1.7641921043395997,0.8496501445770264,0.4631443917751312,1.8814210891723633,-0.4734182357788086,0.1320880949497223,-0.4392218291759491,0.0031932122074067594,0.6814478039741516,-2.2133030891418459]},{"weights":[1.7781959772109986,1.0802472829818726,-0.058701291680336,1.678082823753357,0.1672731339931488,1.0368592739105225,-0.8534349799156189,-0.18779277801513673,0.16261743009090424,3.135338306427002,-2.0631182193756105,-0.3316604197025299]},{"weights":[0.578334629535675,-1.0727977752685547,0.3272346258163452,-2.048640012741089,-2.597684860229492,1.5856449604034424,-0.8237802386283875,-0.6019910573959351,0.7216648459434509,-1.257572889328003,-0.27767854928970339,0.403484046459198]}]},{"nodes":[{"weights":[0.003868659259751439,-0.03927217423915863,-1.474320888519287,0.7377523183822632,-0.4700803756713867,-0.05700591206550598,-0.744188666343689,-0.4650760293006897]},{"weights":[-1.3086228370666505,0.37109389901161196,-0.1846984326839447,-1.3218634128570557,1.8513038158416749,0.9631942510604858,0.9421323537826538,-0.4669673442840576]},{"weights":[-0.11489497870206833,-0.21161086857318879,1.2945917844772339,0.16343465447425843,-0.8018777966499329,0.6976772546768189,-0.6411959528923035,-0.4263386130332947]},{"weights":[-0.9572572708129883,-0.37769702076911929,0.2738780379295349,2.7858006954193117,1.5329898595809937,-1.2646158933639527,0.3664322793483734,-0.6371225714683533]},{"weights":[1.1461714506149293,2.0485963821411135,0.8015872836112976,-0.12867268919944764,0.853305459022522,0.060451436787843707,-0.8801485300064087,-0.8348348140716553]},{"weights":[1.321366310119629,0.4302818477153778,1.2725979089736939,0.8006000518798828,-0.44247233867645266,1.2305651903152466,0.03353379666805267,-1.0147349834442139]},{"weights":[-0.07743498682975769,-0.19368280470371247,0.7602145671844482,-0.6559852957725525,0.11587174981832504,2.8588309288024904,-0.7207244634628296,0.4457255005836487]},{"weights":[0.38512447476387026,-0.7139750719070435,0.6093039512634277,-1.4818569421768189,-2.0071980953216554,0.25776442885398867,0.9249098300933838,0.19081094861030579]}]},{"nodes":[{"weights":[0.2841856777667999,2.5919928550720217,-0.7403150200843811,0.38864317536354067,-1.7451976537704468,1.0430760383605958,0.28737419843673708,-1.0924180746078492]},{"weights":[0.628075361251831,-1.7282553911209107,0.03766980394721031,-1.3214101791381837,0.4088665544986725,0.6238030195236206,-0.5681795477867127,1.6450058221817017]},{"weights":[-0.979559063911438,-1.4829068183898926,0.7977611422538757,1.3241055011749268,0.4464668929576874,0.8593470454216003,0.3376903831958771,-0.5421585440635681]},{"weights":[-0.24756962060928346,0.8331813812255859,-0.47832438349723818,-1.0794212818145753,2.1960339546203615,2.191967248916626,-1.807124137878418,-0.12044379115104675]},{"weights":[-1.5955932140350342,0.24688799679279328,-1.1871768236160279,0.1116199642419815,-0.945553719997406,1.4470881223678589,-0.4178309142589569,0.0972542017698288]},{"weights":[-1.501288890838623,-0.9331494569778442,-0.9899724721908569,-0.8295993804931641,-0.9593275785446167,0.4379637837409973,-0.7890050411224365,0.8600260019302368]},{"weights":[-0.04795357212424278,0.9536452889442444,-1.5138070583343506,-1.0587997436523438,-0.09354960173368454,0.40438467264175417,-0.3606927692890167,-1.5443843603134156]},{"weights":[1.047607421875,-0.23248153924942017,1.2890797853469849,1.2789667844772339,-0.25734129548072817,0.4768107235431671,-0.6883246898651123,-0.9425249099731445]}]},{"nodes":[{"weights":[-1.2033908367156983,0.16533543169498444,-1.298551321029663,1.2676576375961304,-0.02684945799410343,0.4017520248889923,-0.8154489994049072,-0.38285014033317568]},{"weights":[-0.7232654690742493,0.9442383646965027,0.08099116384983063,2.8179826736450197,0.49054625630378725,0.34794899821281435,1.526017427444458,0.38860058784484866]},{"weights":[-0.9626169204711914,-0.6398341059684753,-0.9264266490936279,-0.8287041187286377,0.42716407775878909,-0.8571862578392029,0.28665125370025637,1.8494377136230469]},{"weights":[-0.22036242485046388,-0.44719210267066958,-0.152574360370636,0.6902060508728027,-0.8135416507720947,-0.2770520746707916,0.44261544942855837,-0.33564040064811709]},{"weights":[0.6107920408248901,-0.1110951229929924,0.41596007347106936,1.6377841234207154,1.802614450454712,0.5620799660682678,-0.3288480043411255,0.8916314840316773]},{"weights":[0.9221075773239136,0.3851540684700012,-0.9116422533988953,0.44620481133461,-1.339012861251831,1.3809137344360352,-0.6634091138839722,-0.8260522484779358]},{"weights":[-0.981722354888916,-0.13329657912254334,-0.578109860420227,-1.4782485961914063,0.40315303206443789,-1.2407313585281373,-0.1444525122642517,-0.37517499923706057]},{"weights":[-0.7868166565895081,0.3943788409233093,1.1917214393615723,0.23971717059612275,-1.0842469930648804,1.2116626501083375,0.8316087126731873,-0.15080641210079194]}]}],"biasLayers":[{"biases":[-1.1623413562774659,0.726514458656311,-0.8524932861328125,-0.9004992246627808,-0.798632025718689,0.12150371819734574,0.08210191130638123,-0.5233395099639893]},{"biases":[-0.35434678196907046,-0.7811010479927063,-0.6266579031944275,-1.120910406112671,-0.38448774814605715,0.3263833224773407,1.4256049394607545,0.22897019982337953]},{"biases":[-0.7198411822319031,-1.0304620265960694,0.027946310117840768,-1.5389143228530884,-0.6186226606369019,0.987480640411377,-0.09402656555175781,-0.15279963612556458]},{"biases":[-0.01932719349861145,0.1402597576379776,-1.601689100265503,0.26667580008506777,-0.6463834643363953,-0.9201873540878296,-0.5686257481575012,0.48197853565216067]}],"outputBiases":[0.0004755737609229982,-0.13667728006839753],"outputWeights":[{"weights":[-1.727691411972046,0.10591143369674683,-0.14246045053005219,2.142458915710449,-0.005087476689368486,1.1703851222991944,-0.09937088936567307,0.1853729784488678]},{"weights":[-0.43012478947639468,-1.8230769634246827,-0.30876803398132326,0.1557859182357788,0.7786467671394348,0.9302995204925537,-1.4700860977172852,-0.9372546076774597]}]},{"weightLayers":[{"nodes":[{"weights":[-0.46679654717445376,1.1715960502624512,-1.7358849048614503,-2.4633822441101076,-0.570042610168457,0.6977577805519104,-1.0314481258392335,0.11516555398702622,-2.604841947555542,-1.1404428482055665,-1.0836035013198853,0.3451140224933624]},{"weights":[0.9496369957923889,0.20518381893634797,1.3855191469192505,-1.3664604425430298,0.4751144051551819,-0.6269656419754028,-0.0014689811505377293,1.491002082824707,-1.0205241441726685,1.1946618556976319,-0.3152144253253937,1.5563726425170899]},{"weights":[2.0907084941864015,0.13129441440105439,-0.8401065468788147,-0.1442185938358307,-0.1642698496580124,0.9103914499282837,0.899107813835144,0.17281311750411988,-1.3969136476516724,0.4722379446029663,-0.5415334105491638,-1.501463532447815]},{"weights":[-0.8988980650901794,-2.6681623458862306,0.704182505607605,1.2636218070983887,0.5203244686126709,-0.9709230661392212,-0.4589464068412781,0.21931765973567964,1.8704711198806763,-1.5800532102584839,1.3793768882751465,3.2621097564697267]},{"weights":[-0.416016161441803,1.0813461542129517,-2.048433780670166,-0.062340255826711658,-0.5256326198577881,0.6808820366859436,2.065272808074951,-0.061546456068754199,2.152916193008423,1.4823647737503052,-1.7869986295700074,0.7280266880989075]},{"weights":[-0.7033349871635437,0.16790582239627839,-1.7641233205795289,0.8500785827636719,0.46400129795074465,1.8808456659317017,-0.4732206165790558,0.13232655823230744,-0.4404014050960541,0.0035637756809592249,0.6815558075904846,-2.2127764225006105]},{"weights":[1.778672695159912,1.0795085430145264,-0.058838821947574618,1.677897572517395,0.16650676727294923,1.0365232229232789,-0.8529332876205444,-0.18716658651828767,0.1622575968503952,3.1357100009918215,-2.0635480880737306,-0.3323523998260498]},{"weights":[0.5780934691429138,-1.0730823278427125,0.3271414637565613,-2.048455238342285,-2.5981016159057619,1.5856518745422364,-0.8245764970779419,-0.6023507714271545,0.721440315246582,-1.2572290897369385,-0.27814701199531557,0.40397533774375918]}]},{"nodes":[{"weights":[0.003286446910351515,-0.03885623812675476,-1.4737008810043336,0.737573504447937,-0.4692841172218323,-0.05777808278799057,-0.7443081140518189,-0.46511244773864748]},{"weights":[-1.3087412118911744,0.3706474006175995,-0.1854146122932434,-1.3216779232025147,1.852685809135437,0.9643572568893433,0.9425901174545288,-0.4674099087715149]},{"weights":[-0.11510367691516876,-0.2115306705236435,1.2934446334838868,0.16344648599624635,-0.8021048903465271,0.6979938745498657,-0.6413491368293762,-0.42604488134384158]},{"weights":[-0.9575319290161133,-0.37681376934051516,0.2741783857345581,2.7858903408050539,1.5332359075546265,-1.2654980421066285,0.36578425765037539,-0.6374041438102722]},{"weights":[1.1463260650634766,2.048953056335449,0.8021144866943359,-0.12873850762844087,0.8528386354446411,0.05952836945652962,-0.8796412348747253,-0.8350871205329895]},{"weights":[1.3211181163787842,0.4308770000934601,1.2725995779037476,0.8011180758476257,-0.44279712438583376,1.2312414646148682,0.03393343836069107,-1.0147522687911988]},{"weights":[-0.07732954621315003,-0.19243749976158143,0.7600271105766296,-0.656623363494873,0.11545678973197937,2.859459638595581,-0.7208107709884644,0.44597819447517397]},{"weights":[0.38470932841300967,-0.7134173512458801,0.6093137860298157,-1.4824436902999879,-2.007638454437256,0.25707724690437319,0.9253475666046143,0.19092205166816712]}]},{"nodes":[{"weights":[0.28392428159713747,2.591292381286621,-0.740441083908081,0.38841402530670168,-1.7440115213394166,1.0426585674285889,0.2861061990261078,-1.0919160842895508]},{"weights":[0.6295411586761475,-1.7271603345870972,0.03776293992996216,-1.321305513381958,0.4082239270210266,0.6238091588020325,-0.5683795809745789,1.645634412765503]},{"weights":[-0.9791132807731628,-1.4825575351715088,0.7970357537269592,1.3241286277770997,0.44613394141197207,0.859920084476471,0.3376113474369049,-0.5426151752471924]},{"weights":[-0.24711306393146516,0.8331443667411804,-0.47804927825927737,-1.0784449577331544,2.1957008838653566,2.1911025047302248,-1.8068746328353882,-0.1202782616019249]},{"weights":[-1.5954244136810303,0.24701106548309327,-1.186856985092163,0.11110331118106842,-0.9456863403320313,1.4467368125915528,-0.41826191544532778,0.09830206632614136]},{"weights":[-1.500123381614685,-0.9329800009727478,-0.9904201030731201,-0.8297175168991089,-0.9593259692192078,0.43818607926368716,-0.7883267402648926,0.8605273365974426]},{"weights":[-0.04795679450035095,0.9546797871589661,-1.5142953395843506,-1.0593750476837159,-0.09326162189245224,0.4047413766384125,-0.36073920130729678,-1.5441373586654664]},{"weights":[1.047987937927246,-0.23269525170326234,1.289638876914978,1.2800933122634888,-0.25788259506225588,0.47652217745780947,-0.6886642575263977,-0.9417942762374878]}]},{"nodes":[{"weights":[-1.2027961015701295,0.16472797095775605,-1.2981042861938477,1.2677255868911744,-0.027710838243365289,0.4017992615699768,-0.8154191970825195,-0.38244393467903139]},{"weights":[-0.723211944103241,0.9440054893493652,0.08037111163139343,2.818443536758423,0.49118703603744509,0.34769707918167117,1.5252528190612794,0.389317125082016]},{"weights":[-0.9639703035354614,-0.6400959491729736,-0.9265222549438477,-0.8278728723526001,0.42684388160705569,-0.8573811650276184,0.28678664565086367,1.8482003211975098]},{"weights":[-0.22101998329162599,-0.447112113237381,-0.15214471518993379,0.6898838877677918,-0.8130226731300354,-0.27671918272972109,0.44168195128440859,-0.33460500836372378]},{"weights":[0.6102550029754639,-0.11033225804567337,0.41648197174072268,1.6387535333633423,1.8025912046432496,0.5620046854019165,-0.3290691077709198,0.8924804925918579]},{"weights":[0.9227033257484436,0.3850855231285095,-0.9116582274436951,0.4466745853424072,-1.338320255279541,1.3819626569747925,-0.6637842059135437,-0.8260409235954285]},{"weights":[-0.9822424650192261,-0.1335650086402893,-0.5774266123771668,-1.4778279066085816,0.40310531854629519,-1.2414472103118897,-0.14392876625061036,-0.37430712580680849]},{"weights":[-0.7867595553398132,0.3940756618976593,1.1909456253051758,0.2396143674850464,-1.0837862491607667,1.2124683856964112,0.8325437903404236,-0.15154464542865754]}]}],"biasLayers":[{"biases":[-1.1636286973953248,0.7268223762512207,-0.852726399898529,-0.9003984928131104,-0.7990807890892029,0.12163090705871582,0.08231896907091141,-0.5228955745697022]},{"biases":[-0.3543276786804199,-0.781208336353302,-0.6269661784172058,-1.1205589771270753,-0.38402023911476138,0.32629695534706118,1.4257888793945313,0.2281847596168518]},{"biases":[-0.7198235392570496,-1.030956506729126,0.02754678949713707,-1.5383034944534302,-0.6185094714164734,0.986305296421051,-0.09396848827600479,-0.15239596366882325]},{"biases":[-0.019327932968735696,0.14034180343151093,-1.6007843017578126,0.26566964387893679,-0.6462278962135315,-0.9215177297592163,-0.5684371590614319,0.480827271938324]}],"outputBiases":[0.0013905514497309924,-0.13630902767181397],"outputWeights":[{"weights":[-1.7272433042526246,0.1054985448718071,-0.14274412393569947,2.142957925796509,-0.004621037747710943,1.1696854829788209,-0.1000988781452179,0.1852583885192871]},{"weights":[-0.4304974675178528,-1.822494626045227,-0.30848100781440737,0.15599969029426576,0.7791377305984497,0.9308314919471741,-1.4701404571533204,-0.9368619918823242]}]},{"weightLayers":[{"nodes":[{"weights":[-0.46719616651535036,1.1705703735351563,-1.7367340326309205,-2.464001178741455,-0.570307195186615,0.6976826786994934,-1.0312671661376954,0.1145971417427063,-2.6048617362976076,-1.1405624151229859,-1.0835269689559937,0.34552210569381716]},{"weights":[0.9505105018615723,0.20582807064056397,1.3853659629821778,-1.3657491207122803,0.47467154264450076,-0.6260684728622437,-0.0018542606849223376,1.4911798238754273,-1.0195578336715699,1.1944588422775269,-0.3145943880081177,1.5573753118515015]},{"weights":[2.0902674198150636,0.1308789700269699,-0.8402838706970215,-0.14535699784755708,-0.16310063004493714,0.9106178283691406,0.8995890021324158,0.17324063181877137,-1.39696204662323,0.47162389755249026,-0.5411454439163208,-1.5003812313079835]},{"weights":[-0.898747980594635,-2.6685142517089845,0.7055288553237915,1.2643318176269532,0.5197129249572754,-0.9723935127258301,-0.4582231938838959,0.21877390146255494,1.8697936534881592,-1.5803937911987305,1.378596544265747,3.2620975971221926]},{"weights":[-0.41670024394989016,1.0816643238067628,-2.048794746398926,-0.06228594109416008,-0.5254465341567993,0.680586040019989,2.06461501121521,-0.06241694465279579,2.1531569957733156,1.4819037914276124,-1.7867640256881714,0.7289250493049622]},{"weights":[-0.7032888531684876,0.16778253018856049,-1.7641263008117676,0.849190890789032,0.46397289633750918,1.8817942142486573,-0.4733976125717163,0.13247784972190858,-0.4399733543395996,0.0024341410025954248,0.6815432906150818,-2.213292360305786]},{"weights":[1.778236746788025,1.0800361633300782,-0.05864909291267395,1.6772944927215577,0.16742458939552308,1.0371458530426026,-0.8532235622406006,-0.18776573240756989,0.16234126687049867,3.1349923610687258,-2.063272714614868,-0.33182528614997866]},{"weights":[0.5786411166191101,-1.0729081630706788,0.3272428512573242,-2.0485522747039797,-2.598099946975708,1.5855541229248047,-0.8238828182220459,-0.6014010906219482,0.7214723825454712,-1.257785677909851,-0.2779618203639984,0.4034099876880646]}]},{"nodes":[{"weights":[0.004578028805553913,-0.03955991193652153,-1.4745371341705323,0.7376996874809265,-0.4694873094558716,-0.05721694976091385,-0.7441186904907227,-0.46463096141815188]},{"weights":[-1.3089994192123414,0.3711130619049072,-0.1843319833278656,-1.3224283456802369,1.8519394397735596,0.9633864760398865,0.9426352381706238,-0.46785658597946169]},{"weights":[-0.11555268615484238,-0.2118382304906845,1.2944586277008057,0.16379287838935853,-0.8015109896659851,0.6974567174911499,-0.641468346118927,-0.42582234740257265]},{"weights":[-0.9579654932022095,-0.3771495819091797,0.2743528187274933,2.7853336334228517,1.5332932472229005,-1.2649024724960328,0.36622002720832827,-0.637406587600708]},{"weights":[1.146199345588684,2.0487263202667238,0.8017966747283936,-0.12886425852775575,0.8531700372695923,0.06052175164222717,-0.8798415064811707,-0.8348184823989868]},{"weights":[1.3218727111816407,0.43033477663993838,1.2727726697921754,0.8006385564804077,-0.4427792727947235,1.231089472770691,0.03376324847340584,-1.014580488204956]},{"weights":[-0.07809678465127945,-0.19310832023620606,0.7601416707038879,-0.6561045050621033,0.1160273551940918,2.8591485023498537,-0.721332311630249,0.44614773988723757]},{"weights":[0.3854411244392395,-0.7141551971435547,0.6087710857391357,-1.4816720485687256,-2.007822275161743,0.25788551568984988,0.9253864288330078,0.1902431845664978]}]},{"nodes":[{"weights":[0.2836970388889313,2.5918309688568117,-0.7411200404167175,0.38840922713279726,-1.7448043823242188,1.0429210662841797,0.2871115505695343,-1.0923491716384888]},{"weights":[0.6279650926589966,-1.7284252643585206,0.03740691766142845,-1.3211345672607422,0.4083051383495331,0.6236762404441834,-0.5685763359069824,1.6450554132461548]},{"weights":[-0.979072093963623,-1.4829142093658448,0.7981259822845459,1.3245373964309693,0.44566819071769717,0.859092116355896,0.3380325436592102,-0.5418738722801209]},{"weights":[-0.24731707572937013,0.8330612182617188,-0.47829511761665347,-1.078944444656372,2.196072578430176,2.1919777393341066,-1.8077963590621949,-0.1200203150510788]},{"weights":[-1.595763087272644,0.2469891905784607,-1.187311053276062,0.11199842393398285,-0.94584721326828,1.4468282461166382,-0.41715243458747866,0.09758792817592621]},{"weights":[-1.5006438493728638,-0.9334625601768494,-0.9903753399848938,-0.8296030759811401,-0.9598641395568848,0.4372898042201996,-0.7893407344818115,0.8595738410949707]},{"weights":[-0.048590950667858127,0.9543526768684387,-1.5133293867111207,-1.059122920036316,-0.09330948442220688,0.4047393500804901,-0.3601761758327484,-1.5447410345077515]},{"weights":[1.0480782985687256,-0.233184352517128,1.2897796630859376,1.278853178024292,-0.25756949186325076,0.47644203901290896,-0.6885685324668884,-0.9425515532493591]}]},{"nodes":[{"weights":[-1.202933430671692,0.16458117961883546,-1.298610806465149,1.2678327560424805,-0.026664627715945245,0.4016357958316803,-0.8161587119102478,-0.38320299983024599]},{"weights":[-0.7235146164894104,0.9443724155426025,0.08109933137893677,2.8180747032165529,0.4904094636440277,0.347970575094223,1.5257515907287598,0.3887903690338135]},{"weights":[-0.9627835154533386,-0.6394792795181274,-0.9263252019882202,-0.8288604021072388,0.4269251823425293,-0.8569450378417969,0.2872720956802368,1.8493901491165162]},{"weights":[-0.22092531621456147,-0.4465213716030121,-0.1527782678604126,0.6896134614944458,-0.813957929611206,-0.2769603431224823,0.4418257772922516,-0.33495426177978518]},{"weights":[0.6099720001220703,-0.1108018308877945,0.4161606729030609,1.637594223022461,1.8030496835708619,0.5622983574867249,-0.32939550280570986,0.8918915390968323]},{"weights":[0.9228975176811218,0.38547834753990176,-0.9111840128898621,0.44657838344573977,-1.3385295867919922,1.3811315298080445,-0.6642554998397827,-0.8260005712509155]},{"weights":[-0.9818406105041504,-0.13402175903320313,-0.5776056051254273,-1.478337287902832,0.4029252231121063,-1.2408487796783448,-0.1445155143737793,-0.37435805797576907]},{"weights":[-0.786863386631012,0.3945596516132355,1.1912788152694703,0.2392486184835434,-1.0840375423431397,1.2121385335922242,0.8319885730743408,-0.15042762458324433]}]}],"biasLayers":[{"biases":[-1.1625510454177857,0.7266406416893005,-0.8517382740974426,-0.9005312323570252,-0.7987675666809082,0.12076909095048905,0.08196323364973068,-0.5230227708816528]},{"biases":[-0.35429486632347109,-0.7809510827064514,-0.6267834305763245,-1.120507836341858,-0.38454002141952517,0.3257269859313965,1.4250980615615845,0.22827138006687165]},{"biases":[-0.7193964719772339,-1.030115008354187,0.028449080884456636,-1.53948175907135,-0.6186286211013794,0.9869315028190613,-0.09393902122974396,-0.15287958085536958]},{"biases":[-0.019505826756358148,0.140882208943367,-1.6016215085983277,0.26633116602897646,-0.6469826102256775,-0.9209665060043335,-0.5681599974632263,0.4815482199192047]}],"outputBiases":[0.000525135372299701,-0.13594509661197663],"outputWeights":[{"weights":[-1.728134036064148,0.1062828004360199,-0.14258064329624177,2.142404317855835,-0.004907312802970409,1.1703569889068604,-0.0992765948176384,0.18573173880577088]},{"weights":[-0.4300176203250885,-1.8226975202560425,-0.30944758653640749,0.1558915674686432,0.7788494825363159,0.9302200675010681,-1.4698151350021363,-0.9371811747550964]}]},{"weightLayers":[{"nodes":[{"weights":[-0.46715638041496279,1.1715599298477173,-1.7353483438491822,-2.4636783599853517,-0.5701565146446228,0.6976209878921509,-1.0311111211776734,0.11463279277086258,-2.605220079421997,-1.1401407718658448,-1.0841257572174073,0.3453015387058258]},{"weights":[0.9506207704544067,0.20461909472942353,1.3850756883621216,-1.366636872291565,0.4749257564544678,-0.6266764402389526,-0.0018311406020075083,1.4914509057998658,-1.0199470520019532,1.1941189765930176,-0.31491267681121828,1.5565553903579713]},{"weights":[2.0907249450683595,0.13087691366672517,-0.8402631878852844,-0.1444670855998993,-0.16338717937469483,0.9107584953308106,0.8994242548942566,0.17245355248451234,-1.397026538848877,0.4724666178226471,-0.5416569709777832,-1.5011018514633179]},{"weights":[-0.8980711698532105,-2.6689188480377199,0.7048711776733398,1.2635358572006226,0.5195488333702087,-0.9710444808006287,-0.4588361382484436,0.219563826918602,1.8700168132781983,-1.5804213285446168,1.3785521984100342,3.2625856399536135]},{"weights":[-0.4165991544723511,1.0808348655700684,-2.048118829727173,-0.0627712607383728,-0.5255729556083679,0.6809143424034119,2.0648839473724367,-0.06213293969631195,2.1531453132629396,1.4825111627578736,-1.786320686340332,0.7285661101341248]},{"weights":[-0.7036536335945129,0.16826915740966798,-1.764191746711731,0.8493860960006714,0.46427443623542788,1.8808828592300416,-0.47352123260498049,0.13220149278640748,-0.43988898396492007,0.0027305749244987966,0.681440532207489,-2.212745428085327]},{"weights":[1.778719425201416,1.0800226926803589,-0.058688241988420489,1.6771667003631592,0.1665538251399994,1.036375880241394,-0.853308379650116,-0.187289759516716,0.1621704250574112,3.1356873512268068,-2.0633773803710939,-0.3322826623916626]},{"weights":[0.5783504247665405,-1.0734115839004517,0.3264904022216797,-2.04799222946167,-2.598487138748169,1.5849463939666749,-0.8245240449905396,-0.6022729873657227,0.7218846082687378,-1.256524682044983,-0.27809756994247439,0.40447911620140078]}]},{"nodes":[{"weights":[0.003736720886081457,-0.03906584158539772,-1.4734879732131959,0.7376453876495361,-0.46883150935173037,-0.05755377560853958,-0.7443042993545532,-0.46495646238327029]},{"weights":[-1.3093137741088868,0.3702707588672638,-0.18528394401073457,-1.3217850923538209,1.8528335094451905,0.9639989137649536,0.9429448246955872,-0.467666894197464]},{"weights":[-0.11518771201372147,-0.21092572808265687,1.2935618162155152,0.16307130455970765,-0.8027937412261963,0.6983018517494202,-0.6419633030891419,-0.4264143705368042]},{"weights":[-0.9583898782730103,-0.37658026814460757,0.27402475476264956,2.7860605716705324,1.5337140560150147,-1.2649097442626954,0.3657359480857849,-0.6373510956764221]},{"weights":[1.1461143493652344,2.0491697788238527,0.8017438650131226,-0.12899819016456605,0.8532310128211975,0.05961591377854347,-0.8798871040344238,-0.8348223567008972]},{"weights":[1.321101188659668,0.4303824007511139,1.272707223892212,0.8004502654075623,-0.4431435763835907,1.2312952280044556,0.03376193717122078,-1.014366865158081]},{"weights":[-0.07761387526988983,-0.19287721812725068,0.7598327398300171,-0.6571288108825684,0.11594495922327042,2.859666585922241,-0.7210205793380737,0.44584882259368899]},{"weights":[0.3844629228115082,-0.7140517830848694,0.6085886359214783,-1.4824787378311158,-2.0075459480285646,0.25696811079978945,0.9260770082473755,0.19111335277557374]}]},{"nodes":[{"weights":[0.28376734256744387,2.591266632080078,-0.7410348653793335,0.38884437084198,-1.744529366493225,1.0428942441940308,0.28703340888023379,-1.0918567180633546]},{"weights":[0.6295965313911438,-1.727342963218689,0.03808183595538139,-1.321513295173645,0.40795886516571047,0.6242985725402832,-0.5681319236755371,1.644960880279541]},{"weights":[-0.97883141040802,-1.4830673933029175,0.7978529334068298,1.3238197565078736,0.44576698541641238,0.8597297668457031,0.33828267455101015,-0.5423094034194946]},{"weights":[-0.24730180203914643,0.8329805731773377,-0.4779674708843231,-1.0788863897323609,2.1958539485931398,2.191941738128662,-1.806901216506958,-0.12023402005434036]},{"weights":[-1.5952374935150147,0.24695152044296266,-1.187649130821228,0.11149183660745621,-0.9457053542137146,1.446859359741211,-0.41804689168930056,0.09754130244255066]},{"weights":[-1.5006002187728882,-0.9328261613845825,-0.9905276298522949,-0.8294697403907776,-0.9593933820724487,0.43749821186065676,-0.7882601618766785,0.8599576950073242]},{"weights":[-0.04845552146434784,0.9538862705230713,-1.5136933326721192,-1.0597151517868043,-0.09308109432458878,0.40522488951683047,-0.3608057498931885,-1.543965220451355]},{"weights":[1.0479756593704224,-0.23280076682567597,1.2898449897766114,1.2796128988265992,-0.2585243880748749,0.47585195302963259,-0.6883361339569092,-0.9418278932571411]}]},{"nodes":[{"weights":[-1.2033885717391968,0.16537703573703767,-1.2987407445907593,1.2683887481689454,-0.02717958204448223,0.4018675684928894,-0.8154802918434143,-0.3827490210533142]},{"weights":[-0.7230309247970581,0.9443469047546387,0.08052750676870346,2.8186843395233156,0.49122491478919985,0.3474096953868866,1.5258489847183228,0.38912561535835268]},{"weights":[-0.9630307555198669,-0.6398100852966309,-0.9263594150543213,-0.8278512954711914,0.426368772983551,-0.8570681214332581,0.28717318177223208,1.8488943576812745]},{"weights":[-0.220899760723114,-0.4468512535095215,-0.15264560282230378,0.6904379725456238,-0.813003420829773,-0.27741798758506777,0.4415228068828583,-0.33498120307922366]},{"weights":[0.610019326210022,-0.11107459664344788,0.41606855392456057,1.638633370399475,1.8021432161331177,0.5626891851425171,-0.32846200466156008,0.8916214108467102]},{"weights":[0.9225526452064514,0.3852855861186981,-0.9121455550193787,0.4462343156337738,-1.3385778665542603,1.3812695741653443,-0.6636800169944763,-0.8265434503555298]},{"weights":[-0.9818551540374756,-0.13416549563407899,-0.5773559808731079,-1.4779205322265626,0.4024013876914978,-1.24138343334198,-0.1439456194639206,-0.3735399842262268]},{"weights":[-0.786716639995575,0.39408302307128909,1.1904982328414918,0.23973368108272553,-1.0837637186050416,1.211948037147522,0.831844687461853,-0.15114355087280274]}]}],"biasLayers":[{"biases":[-1.1636016368865967,0.7271761894226074,-0.8519700765609741,-0.9005085825920105,-0.7992675304412842,0.12148626148700714,0.08206918835639954,-0.5232731103897095]},{"biases":[-0.3546624779701233,-0.7813586592674255,-0.6269909739494324,-1.1212544441223145,-0.3844790756702423,0.32575446367263796,1.425697922706604,0.22866372764110566]},{"biases":[-0.7201496362686157,-1.0301839113235474,0.028470678254961969,-1.5382589101791382,-0.6187350749969482,0.9862436056137085,-0.09336119145154953,-0.152705118060112]},{"biases":[-0.019422007724642755,0.14058414101600648,-1.6012412309646607,0.26578861474990847,-0.6458230018615723,-0.9215425252914429,-0.5690159201622009,0.4809989631175995]}],"outputBiases":[0.0018514891853556038,-0.13560333847999574],"outputWeights":[{"weights":[-1.7268675565719605,0.10598058253526688,-0.1426510363817215,2.143009662628174,-0.005416214466094971,1.170171856880188,-0.09983788430690766,0.1856682300567627]},{"weights":[-0.43060556054115298,-1.8229470252990723,-0.30910804867744448,0.15555322170257569,0.7790848612785339,0.9312338829040527,-1.4702763557434083,-0.9366655945777893]}]},{"weightLayers":[{"nodes":[{"weights":[-0.46674177050590517,1.1705235242843629,-1.7365761995315552,-2.4636318683624269,-0.5700236558914185,0.6982647776603699,-1.0312676429748536,0.11537431180477143,-2.604588508605957,-1.1413599252700806,-1.082956075668335,0.3447090685367584]},{"weights":[0.9505665898323059,0.20528466999530793,1.3849672079086304,-1.3659610748291016,0.47416022419929507,-0.6263477206230164,-0.0019747393671423198,1.491156816482544,-1.0199153423309327,1.1940702199935914,-0.3140884339809418,1.5567700862884522]},{"weights":[2.089996576309204,0.13084648549556733,-0.8396415710449219,-0.1449984312057495,-0.16288729012012483,0.9111173152923584,0.8992628455162048,0.17314034700393678,-1.396685242652893,0.47191309928894045,-0.5414454340934753,-1.5010358095169068]},{"weights":[-0.8985162973403931,-2.668208122253418,0.7049247622489929,1.2647526264190674,0.5194488763809204,-0.9720626473426819,-0.45762899518013,0.21929921209812165,1.869900107383728,-1.580519437789917,1.3788336515426636,3.261948585510254]},{"weights":[-0.4166531562805176,1.0814933776855469,-2.048614025115967,-0.06214636564254761,-0.5256813168525696,0.6811434626579285,2.0652525424957277,-0.06235964968800545,2.153306007385254,1.4819375276565552,-1.787407636642456,0.7293331027030945]},{"weights":[-0.7031758427619934,0.16871803998947144,-1.764174222946167,0.849686861038208,0.46313706040382388,1.881421685218811,-0.47380581498146059,0.13268272578716279,-0.4392656981945038,0.0032332867849618198,0.6812453269958496,-2.2126543521881105]},{"weights":[1.7780489921569825,1.0800758600234986,-0.05828927829861641,1.6775250434875489,0.1674201786518097,1.0373142957687379,-0.8532994985580444,-0.18792018294334413,0.16205108165740968,3.134746551513672,-2.063312530517578,-0.3322386145591736]},{"weights":[0.5778598785400391,-1.0733845233917237,0.32648804783821108,-2.048607349395752,-2.5983338356018068,1.5857397317886353,-0.8246837854385376,-0.6016417145729065,0.7217652797698975,-1.2571113109588624,-0.2776597738265991,0.4037509858608246]}]},{"nodes":[{"weights":[0.0043698265217244629,-0.03937816619873047,-1.4743167161941529,0.738431990146637,-0.46999651193618777,-0.05770176649093628,-0.7437494397163391,-0.46473661065101626]},{"weights":[-1.308863639831543,0.3708686828613281,-0.18442831933498383,-1.3223350048065186,1.8517266511917115,0.9639556407928467,0.9423742890357971,-0.4673483371734619]},{"weights":[-0.11523748934268952,-0.21155042946338654,1.2944996356964112,0.1638554334640503,-0.8017632365226746,0.6979691386222839,-0.6419070363044739,-0.42638030648231509]},{"weights":[-0.957278311252594,-0.3770531117916107,0.2741338014602661,2.7851157188415529,1.53340482711792,-1.2648588418960572,0.36665135622024538,-0.6373777389526367]},{"weights":[1.1467974185943604,2.0489296913146974,0.8019810318946838,-0.1289394646883011,0.8536356687545776,0.06032976508140564,-0.8798855543136597,-0.8342615365982056]},{"weights":[1.3211047649383546,0.43036532402038576,1.2725478410720826,0.8006466031074524,-0.4428004324436188,1.2307288646697999,0.03402114287018776,-1.0144586563110352]},{"weights":[-0.07769113034009934,-0.19316181540489198,0.7599411606788635,-0.6564289331436157,0.11586203426122666,2.8592240810394289,-0.7215479016304016,0.4455995261669159]},{"weights":[0.3845858573913574,-0.7147064208984375,0.6092466115951538,-1.4822748899459839,-2.0079684257507326,0.2576165199279785,0.9249648451805115,0.19087091088294984]}]},{"nodes":[{"weights":[0.28352099657058718,2.591961145401001,-0.7411684989929199,0.388766884803772,-1.7449040412902833,1.0430570840835572,0.28699806332588198,-1.092055320739746]},{"weights":[0.6286312341690064,-1.7275956869125367,0.03802065551280975,-1.3208106756210328,0.40880292654037478,0.6233444213867188,-0.5686367154121399,1.645145297050476]},{"weights":[-0.9786968231201172,-1.4828921556472779,0.7978658676147461,1.3240538835525513,0.44650590419769289,0.8592937588691711,0.33758482336997988,-0.5421480536460877]},{"weights":[-0.24766787886619569,0.8332719206809998,-0.47816598415374758,-1.0796343088150025,2.195836067199707,2.191751718521118,-1.8074740171432496,-0.12040551751852036]},{"weights":[-1.5958689451217652,0.24686433374881745,-1.187451958656311,0.11210422962903977,-0.9460885524749756,1.4469547271728516,-0.41763192415237429,0.09786476194858551]},{"weights":[-1.5010631084442139,-0.9334478974342346,-0.9894968867301941,-0.8298710584640503,-0.9597185254096985,0.43715527653694155,-0.7887358665466309,0.8605411648750305]},{"weights":[-0.04844202101230621,0.9540748596191406,-1.514180064201355,-1.0588719844818116,-0.09352629631757736,0.40451619029045107,-0.3608195185661316,-1.5443813800811768]},{"weights":[1.0476547479629517,-0.23296058177947999,1.2895150184631348,1.2788928747177125,-0.25749295949935915,0.4762992560863495,-0.688305139541626,-0.9427478313446045]}]},{"nodes":[{"weights":[-1.2035588026046754,0.16458362340927125,-1.298411250114441,1.267564058303833,-0.02734426222741604,0.40230438113212588,-0.8154011368751526,-0.3824883699417114]},{"weights":[-0.7236058712005615,0.9439144134521484,0.08155743032693863,2.8182899951934816,0.49055910110473635,0.34783831238746645,1.525698184967041,0.38896578550338747]},{"weights":[-0.9624214768409729,-0.6391003131866455,-0.9265282154083252,-0.8284534811973572,0.4263342618942261,-0.8569698929786682,0.28662124276161196,1.8484995365142823]},{"weights":[-0.22073078155517579,-0.44625231623649599,-0.15227587521076203,0.689863383769989,-0.8134905099868774,-0.2776896357536316,0.44221851229667666,-0.33515051007270815]},{"weights":[0.6101700067520142,-0.11070552468299866,0.41595837473869326,1.6378145217895508,1.8026726245880128,0.5630248188972473,-0.32868120074272158,0.8916221857070923]},{"weights":[0.9223614931106567,0.38517045974731448,-0.9116522669792175,0.4459041953086853,-1.3392229080200196,1.3807790279388428,-0.6643640398979187,-0.8262903094291687]},{"weights":[-0.9826224446296692,-0.13378913700580598,-0.5779511332511902,-1.4777600765228272,0.40233251452445986,-1.2411664724349976,-0.14408710598945619,-0.3747595250606537]},{"weights":[-0.7865056395530701,0.39437422156333926,1.1913663148880005,0.23972852528095246,-1.084742546081543,1.211592435836792,0.8320527076721191,-0.15080037713050843]}]}],"biasLayers":[{"biases":[-1.162421703338623,0.7263776063919067,-0.8517372608184815,-0.9002780914306641,-0.7983973026275635,0.12116880714893341,0.08266832679510117,-0.5231372714042664]},{"biases":[-0.3542884886264801,-0.7813019752502441,-0.6261062026023865,-1.1203862428665162,-0.3844309151172638,0.32652613520622256,1.4251595735549927,0.22842265665531159]},{"biases":[-0.7199363708496094,-1.030344009399414,0.02767602540552616,-1.5389620065689088,-0.6178425550460815,0.9873747825622559,-0.09457054734230042,-0.1527029275894165]},{"biases":[-0.01952306181192398,0.14094068109989167,-1.6010311841964722,0.26583096385002139,-0.6464535593986511,-0.9208224415779114,-0.5686681270599365,0.48118987679481509]}],"outputBiases":[0.0008526010205969214,-0.13667188584804536],"outputWeights":[{"weights":[-1.7282031774520875,0.10587511956691742,-0.1426142305135727,2.1432666778564455,-0.0046410090290009979,1.1703073978424073,-0.09937718510627747,0.18570192158222199]},{"weights":[-0.43013665080070498,-1.822324514389038,-0.308800607919693,0.1560128778219223,0.778734028339386,0.9310253262519836,-1.470434308052063,-0.9374780058860779]}]},{"weightLayers":[{"nodes":[{"weights":[-0.46712133288383486,1.1711204051971436,-1.7354098558425904,-2.463388204574585,-0.5699584484100342,0.6981680393218994,-1.030641794204712,0.11462470889091492,-2.604654550552368,-1.140286922454834,-1.0834182500839234,0.3451462984085083]},{"weights":[0.9505369067192078,0.20484529435634614,1.3852545022964478,-1.3666380643844605,0.47483497858047488,-0.6270940899848938,-0.0018464501481503249,1.4913642406463624,-1.0204896926879883,1.1942979097366334,-0.3146243393421173,1.556433916091919]},{"weights":[2.0901365280151369,0.13129502534866334,-0.8406213521957398,-0.14483647048473359,-0.16428819298744203,0.9104868769645691,0.8994269371032715,0.17243333160877229,-1.397053599357605,0.4729789197444916,-0.5412096381187439,-1.501147985458374]},{"weights":[-0.8989434242248535,-2.6688480377197267,0.7041603922843933,1.263906478881836,0.5199323296546936,-0.9716997146606445,-0.45855212211608889,0.21975083649158479,1.8703848123550416,-1.580222487449646,1.378440022468567,3.262512683868408]},{"weights":[-0.416007399559021,1.081574559211731,-2.0484890937805177,-0.06271287798881531,-0.5256262421607971,0.6804907321929932,2.065082550048828,-0.061815012246370319,2.1536433696746828,1.4827595949172974,-1.7866641283035279,0.7280663251876831]},{"weights":[-0.7037860751152039,0.16769857704639436,-1.764297366142273,0.8492961525917053,0.4637242555618286,1.8808140754699708,-0.4732920527458191,0.1326979398727417,-0.4398677945137024,0.0035515425261110069,0.6818066835403442,-2.2135353088378908]},{"weights":[1.7789469957351685,1.0801314115524293,-0.05845799669623375,1.6770217418670655,0.1662202775478363,1.0364995002746583,-0.8530687689781189,-0.1867845505475998,0.16247354447841645,3.1357204914093019,-2.062636137008667,-0.3324069678783417]},{"weights":[0.5784463882446289,-1.0735363960266114,0.3272545039653778,-2.0482163429260256,-2.5981364250183107,1.5850296020507813,-0.8246039152145386,-0.6019881963729858,0.721621036529541,-1.2571625709533692,-0.277243971824646,0.40444478392601015]}]},{"nodes":[{"weights":[0.003256966359913349,-0.03892739117145538,-1.4738781452178956,0.7384785413742065,-0.4696916341781616,-0.05785507336258888,-0.7435794472694397,-0.4648481607437134]},{"weights":[-1.3093035221099854,0.3708486557006836,-0.18498319387435914,-1.3219949007034302,1.8520846366882325,0.963848888874054,0.9428953528404236,-0.46671658754348757]},{"weights":[-0.11540250480175019,-0.21102073788642884,1.293501853942871,0.16353122889995576,-0.8027001619338989,0.6980907320976257,-0.6413722634315491,-0.4259186387062073]},{"weights":[-0.957489550113678,-0.3769969940185547,0.274612158536911,2.785905361175537,1.5329231023788453,-1.2647700309753419,0.3656502962112427,-0.6376631855964661]},{"weights":[1.1465646028518677,2.0487160682678224,0.8021141290664673,-0.12863163650035859,0.8523785471916199,0.059703197330236438,-0.8795872330665588,-0.8344635963439941]},{"weights":[1.3212107419967652,0.43076077103614809,1.2727687358856202,0.8010823726654053,-0.4428296685218811,1.2309434413909913,0.03380509838461876,-1.014184594154358]},{"weights":[-0.07750768214464188,-0.19243021309375764,0.7591708302497864,-0.6568036675453186,0.11574825644493103,2.859478712081909,-0.7206828594207764,0.4465429484844208]},{"weights":[0.3848397433757782,-0.7137516140937805,0.6086572408676148,-1.4818978309631348,-2.007113218307495,0.25641772150993349,0.9254830479621887,0.19145134091377259]}]},{"nodes":[{"weights":[0.28377482295036318,2.5913379192352297,-0.7406130433082581,0.38849949836730959,-1.7440704107284547,1.0424631834030152,0.28639113903045657,-1.0918422937393189]},{"weights":[0.628724992275238,-1.7266324758529664,0.03825511783361435,-1.3214547634124756,0.4081333577632904,0.6234495043754578,-0.5681889057159424,1.645572304725647]},{"weights":[-0.9784852266311646,-1.4824727773666382,0.796887993812561,1.3238774538040162,0.44548338651657107,0.85933518409729,0.3374381959438324,-0.5423964262008667]},{"weights":[-0.24785682559013368,0.8328723311424255,-0.47858208417892458,-1.0784287452697755,2.19547963142395,2.191480875015259,-1.8070509433746338,-0.1198662593960762]},{"weights":[-1.5956226587295533,0.24661190807819367,-1.1877423524856568,0.11145991832017899,-0.9457330107688904,1.4470138549804688,-0.41795188188552859,0.09835252165794373]},{"weights":[-1.5001075267791749,-0.9329960942268372,-0.9901968836784363,-0.8295468688011169,-0.9599478840827942,0.43755754828453066,-0.7880053520202637,0.8598170280456543]},{"weights":[-0.048071496188640597,0.9540746808052063,-1.5146150588989258,-1.0599000453948975,-0.09361293911933899,0.404595285654068,-0.3610137104988098,-1.5442850589752198]},{"weights":[1.0472726821899415,-0.23322747647762299,1.2897456884384156,1.2800853252410889,-0.257637619972229,0.4763824939727783,-0.6882129907608032,-0.9423161149024963]}]},{"nodes":[{"weights":[-1.202889084815979,0.16472139954566956,-1.298288345336914,1.268429160118103,-0.027414893731474878,0.40177640318870547,-0.8153855800628662,-0.3827347755432129]},{"weights":[-0.722511887550354,0.943825900554657,0.08054856956005097,2.8184101581573488,0.49096283316612246,0.34800708293914797,1.5255215167999268,0.38949155807495119]},{"weights":[-0.9631163477897644,-0.6392894983291626,-0.9264559149742127,-0.8286853432655335,0.42644524574279787,-0.8570197224617004,0.28687331080436709,1.848905324935913]},{"weights":[-0.22165480256080628,-0.4471229612827301,-0.15220144391059876,0.6905714869499207,-0.8131510019302368,-0.2766360640525818,0.4414454400539398,-0.33521339297294619]},{"weights":[0.6102075576782227,-0.11089428514242172,0.41615384817123415,1.6383401155471802,1.8024983406066895,0.5622583031654358,-0.3283962607383728,0.8925063014030457]},{"weights":[0.9225765466690064,0.3850865364074707,-0.911966860294342,0.44647926092147829,-1.3384677171707154,1.3810782432556153,-0.6641622185707092,-0.8257796168327332]},{"weights":[-0.9822116494178772,-0.1335192620754242,-0.5775611400604248,-1.477793574333191,0.4029964804649353,-1.2415307760238648,-0.14344625174999238,-0.37408095598220827]},{"weights":[-0.7861703038215637,0.3945576548576355,1.1904288530349732,0.24017168581485749,-1.0833184719085694,1.2123126983642579,0.8322080969810486,-0.15132924914360047]}]}],"biasLayers":[{"biases":[-1.1632061004638672,0.7271444797515869,-0.8518083095550537,-0.9003966450691223,-0.798588216304779,0.12140359729528427,0.08224107325077057,-0.5232340097427368]},{"biases":[-0.35439252853393557,-0.7817358374595642,-0.6268067359924316,-1.1211949586868287,-0.3838527500629425,0.32602450251579287,1.4259274005889893,0.22853639721870423]},{"biases":[-0.7202383875846863,-1.0301681756973267,0.028208956122398378,-1.5381907224655152,-0.6186811923980713,0.9867879748344421,-0.09423194080591202,-0.15216055512428285]},{"biases":[-0.018951091915369035,0.14050748944282533,-1.6012096405029297,0.26578837633132937,-0.6462901830673218,-0.9216017127037048,-0.5689098238945007,0.4807324707508087]}],"outputBiases":[0.0013192142359912396,-0.13566069304943086],"outputWeights":[{"weights":[-1.7274549007415772,0.10565464943647385,-0.1425590217113495,2.1430130004882814,-0.004866420291364193,1.1703547239303589,-0.10062633454799652,0.18583425879478455]},{"weights":[-0.429860383272171,-1.8230410814285279,-0.3084477484226227,0.1560293287038803,0.7792683839797974,0.930806040763855,-1.4697984457015992,-0.936959445476532]}]},{"weightLayers":[{"nodes":[{"weights":[-0.4693385660648346,1.1711270809173585,-1.73529052734375,-2.4629931449890138,-0.5710287690162659,0.6984796524047852,-1.0308609008789063,0.11590445786714554,-2.6049256324768068,-1.1412742137908936,-1.0842864513397217,0.34406790137290957]},{"weights":[0.9491135478019714,0.20575478672981263,1.384917140007019,-1.3674166202545167,0.47493189573287966,-0.6253613233566284,0.00104247173294425,1.490677833557129,-1.020309567451477,1.1959306001663209,-0.31298020482063296,1.5574924945831299]},{"weights":[2.089510440826416,0.1306503862142563,-0.8404536843299866,-0.14511066675186158,-0.16288413107395173,0.910532534122467,0.8994155526161194,0.17244333028793336,-1.3977124691009522,0.4730689525604248,-0.5397694706916809,-1.5001732110977173]},{"weights":[-0.9006752371788025,-2.667724370956421,0.7051576972007752,1.2634562253952027,0.519402265548706,-0.972135603427887,-0.45817551016807558,0.21739420294761659,1.8675403594970704,-1.5797374248504639,1.3799142837524415,3.260725259780884]},{"weights":[-0.41702187061309817,1.0828121900558472,-2.0502073764801027,-0.06358899176120758,-0.524948000907898,0.6792575120925903,2.0659377574920656,-0.06177562102675438,2.1541647911071779,1.4819328784942628,-1.7871257066726685,0.7279285192489624]},{"weights":[-0.7027936577796936,0.16910001635551454,-1.764529824256897,0.8502818942070007,0.46255242824554446,1.8817368745803834,-0.47187960147857668,0.1319991499185562,-0.43960896134376528,0.0028789786156266929,0.6811805367469788,-2.213698148727417]},{"weights":[1.778715968132019,1.0793834924697877,-0.05979953333735466,1.6774358749389649,0.16599981486797334,1.0363279581069947,-0.8533418774604797,-0.1855902522802353,0.16239482164382935,3.1346797943115236,-2.0637929439544679,-0.33319804072380068]},{"weights":[0.5773041844367981,-1.0736143589019776,0.3271395266056061,-2.048389434814453,-2.596937417984009,1.5856705904006959,-0.8247939348220825,-0.6028846502304077,0.720851719379425,-1.254960060119629,-0.27901652455329897,0.4045978784561157]}]},{"nodes":[{"weights":[0.004281769506633282,-0.03769899159669876,-1.4744013547897339,0.737913191318512,-0.46958881616592409,-0.06006211042404175,-0.7448327541351318,-0.4633711576461792]},{"weights":[-1.309727668762207,0.3722902238368988,-0.18308201432228089,-1.3226898908615113,1.8531731367111207,0.9633483290672302,0.9408636689186096,-0.4662303626537323]},{"weights":[-0.11311855167150498,-0.21255765855312348,1.2935359477996827,0.16430015861988069,-0.8031730055809021,0.694841206073761,-0.6404861807823181,-0.42762765288352969]},{"weights":[-0.9582166075706482,-0.37633776664733889,0.27242666482925417,2.785449504852295,1.5341609716415406,-1.2647967338562012,0.3665100634098053,-0.6365091800689697]},{"weights":[1.1463162899017335,2.0482447147369386,0.8037436604499817,-0.12887345254421235,0.8529726266860962,0.05968160554766655,-0.881016194820404,-0.8353884816169739]},{"weights":[1.3215996026992798,0.4299260079860687,1.270781397819519,0.8013816475868225,-0.44274330139160159,1.230820894241333,0.03445734083652496,-1.0161173343658448]},{"weights":[-0.07756253331899643,-0.19302885234355927,0.7593243718147278,-0.6559943556785584,0.11760815978050232,2.8596031665802,-0.7225132584571838,0.44521406292915347]},{"weights":[0.385616272687912,-0.7133551836013794,0.6098802089691162,-1.482330322265625,-2.0070641040802,0.2552214562892914,0.925881028175354,0.19208532571792603]}]},{"nodes":[{"weights":[0.28341320157051089,2.592543125152588,-0.7402594089508057,0.390353798866272,-1.7464137077331544,1.0425456762313843,0.28592655062675478,-1.0930670499801636]},{"weights":[0.6282639503479004,-1.7259074449539185,0.03864330053329468,-1.32199227809906,0.4076722264289856,0.6239575743675232,-0.5696986317634583,1.6443132162094117]},{"weights":[-0.9796069264411926,-1.4825905561447144,0.7986512780189514,1.325326681137085,0.44648340344429018,0.8603110909461975,0.33807477355003359,-0.5423309206962586]},{"weights":[-0.24847626686096192,0.8324329853057861,-0.47989794611930849,-1.0798131227493287,2.197813034057617,2.1932713985443117,-1.8080434799194337,-0.1180148497223854]},{"weights":[-1.5965626239776612,0.24833129346370698,-1.186509609222412,0.11111797392368317,-0.9464038014411926,1.4477531909942628,-0.41853052377700808,0.10043678432703018]},{"weights":[-1.499880313873291,-0.9340794682502747,-0.9896645545959473,-0.8302485346794128,-0.9589630961418152,0.4379262626171112,-0.7869520783424377,0.8607754111289978]},{"weights":[-0.04903344064950943,0.9529273509979248,-1.5127863883972169,-1.0593622922897339,-0.0933881476521492,0.4030255377292633,-0.36069509387016299,-1.5444834232330323]},{"weights":[1.0477404594421387,-0.23324035108089448,1.2904256582260132,1.2785553932189942,-0.258992075920105,0.4775100350379944,-0.6872631907463074,-0.9419629573822022]}]},{"nodes":[{"weights":[-1.2029234170913697,0.16523587703704835,-1.2994712591171265,1.2683137655258179,-0.02619573101401329,0.4033472537994385,-0.8141748309135437,-0.3822210729122162]},{"weights":[-0.7228191494941711,0.9437190890312195,0.0803132876753807,2.8174562454223635,0.49098142981529238,0.34722501039505007,1.5255930423736573,0.3903425931930542]},{"weights":[-0.9661663174629211,-0.6393845081329346,-0.9258869290351868,-0.8285876512527466,0.42655372619628909,-0.8578793406486511,0.2875811755657196,1.847961664199829]},{"weights":[-0.22133217751979829,-0.4465163052082062,-0.1518886834383011,0.6897813081741333,-0.8144220113754273,-0.2758619785308838,0.4425683915615082,-0.33550700545310976]},{"weights":[0.6102418899536133,-0.11164693534374237,0.4166167676448822,1.6392892599105836,1.8012458086013795,0.5623077750205994,-0.3262592852115631,0.8931894302368164]},{"weights":[0.9234421849250794,0.384525328874588,-0.9115914106369019,0.4465971291065216,-1.338440179824829,1.3810341358184815,-0.6637555360794067,-0.8244708776473999]},{"weights":[-0.9809482097625732,-0.13417381048202516,-0.5793498158454895,-1.4777787923812867,0.4031926691532135,-1.2414470911026,-0.14342816174030305,-0.3728308379650116]},{"weights":[-0.787443220615387,0.39527851343154909,1.1910285949707032,0.24050968885421754,-1.0843218564987183,1.2135519981384278,0.8326427936553955,-0.15129557251930238]}]}],"biasLayers":[{"biases":[-1.1630648374557496,0.727737307548523,-0.8509369492530823,-0.900091290473938,-0.7999516129493713,0.12259187549352646,0.0822724997997284,-0.5239632725715637]},{"biases":[-0.3555450439453125,-0.7826586961746216,-0.6269707083702087,-1.119762659072876,-0.38544684648513796,0.3242327868938446,1.4248850345611573,0.22982043027877809]},{"biases":[-0.7195626497268677,-1.0308563709259034,0.027675678953528405,-1.5403573513031006,-0.6183414459228516,0.9881967902183533,-0.09456443786621094,-0.1544862985610962]},{"biases":[-0.018965426832437516,0.14076828956604005,-1.599770188331604,0.26592913269996645,-0.648076593875885,-0.9222084879875183,-0.5688750743865967,0.4819072186946869]}],"outputBiases":[0.0020666923373937608,-0.13614843785762788],"outputWeights":[{"weights":[-1.7291250228881837,0.10501304268836975,-0.1432446390390396,2.144805431365967,-0.005599592812359333,1.1696538925170899,-0.10057105123996735,0.18734906613826753]},{"weights":[-0.4302816689014435,-1.8222910165786744,-0.3087657392024994,0.15573032200336457,0.7779542207717896,0.9312906265258789,-1.4695755243301392,-0.9367222785949707]}]},{"weightLayers":[{"nodes":[{"weights":[-0.46711811423301699,1.1700456142425538,-1.7358402013778687,-2.463367223739624,-0.5699993968009949,0.6977615356445313,-1.0315059423446656,0.11476466804742813,-2.604649066925049,-1.1406822204589844,-1.083349347114563,0.345053493976593]},{"weights":[0.9504838585853577,0.20572246611118318,1.385164737701416,-1.366138219833374,0.47457489371299746,-0.627008855342865,-0.0023927188012748958,1.4911208152770997,-1.0198713541030884,1.1937929391860963,-0.3140406012535095,1.5568103790283204]},{"weights":[2.0894908905029299,0.13161736726760865,-0.8396468162536621,-0.14479975402355195,-0.16330085694789887,0.9110283851623535,0.8992846012115479,0.17272265255451203,-1.3969882726669312,0.471727579832077,-0.5409933924674988,-1.500580906867981]},{"weights":[-0.8986223340034485,-2.6680567264556886,0.7051620483398438,1.2646715641021729,0.5195324420928955,-0.9727090001106262,-0.4575226902961731,0.21914367377758027,1.869070053100586,-1.580724835395813,1.3785232305526734,3.2622783184051515]},{"weights":[-0.41660329699516299,1.0821046829223633,-2.0483832359313967,-0.06260504573583603,-0.5255468487739563,0.6813128590583801,2.065310001373291,-0.06195579469203949,2.153731346130371,1.4821909666061402,-1.7873828411102296,0.7293568253517151]},{"weights":[-0.7028306126594544,0.1680745929479599,-1.7635339498519898,0.8494418859481812,0.46353989839553835,1.881156086921692,-0.4730074405670166,0.1319868266582489,-0.43996497988700869,0.002906274516135454,0.6805818676948547,-2.213432550430298]},{"weights":[1.7782695293426514,1.0797600746154786,-0.05797893553972244,1.6773037910461426,0.1671527624130249,1.0369433164596558,-0.8537929654121399,-0.18745680153369904,0.16242924332618714,3.1352312564849855,-2.063300371170044,-0.33223119378089907]},{"weights":[0.5776638984680176,-1.0733834505081177,0.32720163464546206,-2.048297643661499,-2.5979807376861574,1.5862263441085816,-0.8243156671524048,-0.6012232899665833,0.7214557528495789,-1.2570455074310303,-0.2780240774154663,0.4036148190498352]}]},{"nodes":[{"weights":[0.003698223503306508,-0.03904317319393158,-1.4747414588928223,0.7377769947052002,-0.46950677037239077,-0.057249777019023898,-0.7436982989311218,-0.4648399353027344]},{"weights":[-1.3087103366851807,0.3708759844303131,-0.18414238095283509,-1.3223429918289185,1.8512365818023682,0.9635998010635376,0.9421281814575195,-0.46770307421684267]},{"weights":[-0.11541597545146942,-0.21168361604213715,1.2945668697357178,0.16351507604122163,-0.8014767169952393,0.6977128386497498,-0.6418542861938477,-0.42633527517318728]},{"weights":[-0.9579172730445862,-0.3768386244773865,0.2743408679962158,2.7852656841278078,1.5337128639221192,-1.2647005319595338,0.3658078908920288,-0.6375713348388672]},{"weights":[1.1468021869659424,2.049297332763672,0.801677405834198,-0.12920869886875153,0.8535552024841309,0.06027620658278465,-0.8803116083145142,-0.8341028690338135]},{"weights":[1.3217191696166993,0.4303249716758728,1.2724244594573975,0.8006908297538757,-0.4421449899673462,1.2310292720794678,0.034186165779829028,-1.0145598649978638]},{"weights":[-0.07790952175855637,-0.194052055478096,0.7600540518760681,-0.6556751728057861,0.11613032221794129,2.859160900115967,-0.7213857769966126,0.4461669623851776]},{"weights":[0.38486576080322268,-0.7142937779426575,0.608763575553894,-1.4820218086242676,-2.007652759552002,0.2576058804988861,0.9251189827919006,0.1909681111574173]}]},{"nodes":[{"weights":[0.2833886742591858,2.591867685317993,-0.7404478192329407,0.38809269666671755,-1.7456876039505005,1.0429233312606812,0.2873319387435913,-1.0918428897857667]},{"weights":[0.6282809376716614,-1.7275772094726563,0.03766362741589546,-1.3215093612670899,0.4087181091308594,0.6230174899101257,-0.5684258341789246,1.6456910371780396]},{"weights":[-0.9787997007369995,-1.4823758602142335,0.7975842356681824,1.32451331615448,0.4458058178424835,0.8589639067649841,0.337536484003067,-0.5414091944694519]},{"weights":[-0.247086763381958,0.8329242467880249,-0.47847065329551699,-1.0796271562576295,2.1953368186950685,2.19143009185791,-1.807477593421936,-0.12077208608388901]},{"weights":[-1.5956591367721558,0.24684761464595796,-1.1875033378601075,0.11120335757732392,-0.9458184242248535,1.4464598894119263,-0.41715767979621889,0.09722211956977844]},{"weights":[-1.5013368129730225,-0.9335280060768127,-0.9896408915519714,-0.8299571871757507,-0.9597228765487671,0.43789219856262209,-0.7887561321258545,0.8596271872520447]},{"weights":[-0.04851657897233963,0.953605055809021,-1.5136845111846924,-1.0585172176361085,-0.09324675053358078,0.40466707944869997,-0.3600269556045532,-1.5446478128433228]},{"weights":[1.0477874279022217,-0.23289933800697328,1.2890238761901856,1.2795679569244385,-0.25714921951293948,0.4769982397556305,-0.6886417269706726,-0.941902756690979]}]},{"nodes":[{"weights":[-1.2028621435165406,0.1651902198791504,-1.2983207702636719,1.2672253847122193,-0.02708887681365013,0.40205156803131106,-0.8154372572898865,-0.3827056586742401]},{"weights":[-0.7233003377914429,0.9447502493858337,0.08168550580739975,2.818809747695923,0.49061131477355959,0.34764814376831057,1.5262418985366822,0.3893950879573822]},{"weights":[-0.9623810648918152,-0.6391391158103943,-0.9264107942581177,-0.8287367224693298,0.4263816177845001,-0.856431245803833,0.28651338815689089,1.8487967252731324]},{"weights":[-0.22050462663173676,-0.44705286622047427,-0.1518438160419464,0.6896196603775024,-0.813002347946167,-0.27770039439201357,0.4427056908607483,-0.33565956354141238]},{"weights":[0.6106141209602356,-0.11131557822227478,0.4163972735404968,1.6380003690719605,1.8030558824539185,0.5630356669425964,-0.3286704421043396,0.8912462592124939]},{"weights":[0.9229255318641663,0.3850240409374237,-0.9109196662902832,0.4466541111469269,-1.3393217325210572,1.3806910514831544,-0.6636000871658325,-0.8260450959205627]},{"weights":[-0.9820399880409241,-0.1333959400653839,-0.5776852369308472,-1.4779657125473023,0.40301936864852908,-1.2413219213485718,-0.14381331205368043,-0.3749363422393799]},{"weights":[-0.7869415283203125,0.3944202959537506,1.1916370391845704,0.24011342227458955,-1.084099292755127,1.2120552062988282,0.8317644000053406,-0.15096516907215119]}]}],"biasLayers":[{"biases":[-1.1626030206680298,0.726940393447876,-0.8522980213165283,-0.9009904265403748,-0.7985800504684448,0.12156973034143448,0.08231324702501297,-0.5234407186508179]},{"biases":[-0.3537410497665405,-0.7812594771385193,-0.6262266635894775,-1.12044358253479,-0.3843006491661072,0.32653090357780459,1.4256539344787598,0.22840014100074769]},{"biases":[-0.7199991941452026,-1.0296424627304078,0.028357578441500665,-1.538927674293518,-0.6182504892349243,0.9877118468284607,-0.09383387118577957,-0.15319067239761353]},{"biases":[-0.019854536280035974,0.14099852740764619,-1.6016331911087037,0.2665402293205261,-0.6464093923568726,-0.9201798439025879,-0.5685454607009888,0.481477826833725]}],"outputBiases":[0.0014501833356916905,-0.1365881711244583],"outputWeights":[{"weights":[-1.727437973022461,0.10610947012901306,-0.14274375140666963,2.143328905105591,-0.00545250391587615,1.1698514223098755,-0.09920953214168549,0.18529348075389863]},{"weights":[-0.43066325783729555,-1.8224271535873414,-0.30896246433258059,0.15632212162017823,0.7787415385246277,0.9309269785881043,-1.4696693420410157,-0.93717360496521]}]}]}